svm_type c_svc
kernel_type rbf
gamma 0.25
nr_class 2
total_sv 972
rho 2.611965324599158
label 1 2
nr_sv 497 475
SV
16.0 1:0.3493836506904669 2:0.20321851594441104 3:0.6684125423145623 4:0.31315997301745785 5:0.22527506865776833 6:0.49004717316857704 7:0.2794244587859415 8:0.3579182751270966 9:0.3486464313169097 10:0.5026406895713865 11:0.4729235790839331 12:0.2088447490962329 13:0.3447990060920386 14:0.3014355609353524 15:0.44056663512504823 16:0.4331043040481975 17:0.41416787379349845 18:0.7005901015530055 19:0.44847327764159556 20:0.34562435099731165 21:0.5932222137869771 22:0.05597826560081514 23:0.5148327300647689 24:0.5079762644522736 25:0.4523215033489435 26:0.28173685797567594 27:0.5956355711752647 28:0.6006672545704993 29:0.562461153159423 30:0.5 31:0.625 32:0.375 
16.0 1:0.8004801902975024 2:0.02752052463276549 3:0.2999213097702283 4:0.4581449672577748 5:0.6617452750132297 6:0.7894907067867634 7:0.15762089100142873 8:0.2926616463658479 9:0.4667515521930703 10:0.673980796512538 11:0.8674318622150289 12:0.014347303442884998 13:0.2851136359043079 14:0.45459157609039225 15:0.6956888174839702 16:0.8181278570611168 17:0.05764821680783513 18:0.029707145300971464 19:0.4047927224211246 20:0.630742477272099 21:0.7175981969610702 22:0.04958421131464354 23:0.16193352173154008 24:0.3382330434022087 25:0.48275418898040723 26:0.5738265152276609 27:0.5111392774084805 28:0.3688418074023581 29:0.5987992172028511 30:0.42857142857142855 31:0.25 32:0.0625 
16.0 1:0.7512832506088067 2:0.012497544811133634 3:0.3973628838258358 4:0.4103066238924661 5:0.5264750792728734 6:0.716983754519658 7:0.024586384639888298 8:0.28220324863986757 9:0.3111229078740176 10:0.5623840267614443 11:0.6622222539112037 12:0.039291178765761194 13:0.4192458079496909 14:0.37798340792634605 15:0.5288345359449402 16:0.7858913979273509 17:0.05940216877076497 18:0.15108900682086718 19:0.24288531410897482 20:0.4801132320729133 21:0.7211551643002184 22:0.04293133984816203 23:0.30394995380833856 24:0.2130650755161258 25:0.3544597516494265 26:0.5297014775354304 27:0.5677999046096591 28:0.5900316080891175 29:0.7906560568598456 30:0.21428571428571427 30:0.21428571428571427 30:0.21428571428571427 
16.0 1:0.7444672286852152 2:0.03227909587106661 3:0.20253848765549864 4:0.17682142715681215 5:0.4551674119679045 6:0.7712533973343773 7:0.042622959156856655 8:0.15906331922902153 9:0.13060666581059038 10:0.48917089466623515 11:0.7423220074469155 12:0.09429676045551134 13:0.2397116964821049 14:0.1128316616355034 15:0.4094467014228034 16:0.6937112642234892 17:0.13102496924274037 18:0.20632677188854676 19:0.18180313584400903 20:0.45246043724069634 21:0.6965994104976371 22:0.02583547078793222 23:0.2221181053312637 24:0.17980841170233955 25:0.3277361802516113 26:0.3961202130867423 27:0.4067208387536806 28:0.7426588006909194 29:0.8546036011306641 30:0.14285714285714285 31:0.125 31:0.125 
16.0 1:0.6875434479116461 2:0.05259594662498987 3:0.4211980568515347 4:0.39260625372652763 5:0.4650064439661228 6:0.6455980638313388 7:0.11706290713884317 8:0.41058459279846266 9:0.3873902648845251 10:0.5126461209668146 11:0.6424463801745147 12:0.08635127626739779 13:0.3808448268022604 14:0.310422109504856 15:0.5019231016804373 16:0.6139334681038623 17:0.12582332177417427 18:0.3617216839491169 19:0.5165770782007797 20:0.5465894895018961 21:0.5470000297170164 22:0.20932837479999586 23:0.49350937355281155 24:0.4722669749814609 25:0.35910986695613467 26:0.46828827017790703 27:0.6905889775685102 28:0.4952637826904862 29:0.721197271676977 30:0.21428571428571427 31:0.125 31:0.125 
16.0 1:0.6959370734648833 2:0.015010998117553558 3:0.3915816728197105 4:0.49064844769725174 5:0.5710222326816572 6:0.7973881170833779 7:0.031068248899555093 8:0.33180069625879594 9:0.4885719348044521 10:0.6742502776479031 11:0.7747911870938551 12:0.049146585796092886 13:0.3707758273930112 14:0.530919241520147 15:0.7038039586725559 16:0.7840325892756537 17:0.03043571973481583 18:0.2801598954403941 19:0.30662528786655413 20:0.4909349325387915 21:0.684283033907309 22:0.0657125199509092 23:0.1831058378491896 24:0.358481516041062 25:0.5000002187856032 26:0.5625691024223538 27:0.5291756640639518 28:0.4089938699259633 29:0.6055794337659132 30:0.7142857142857143 30:0.7142857142857143 30:0.7142857142857143 
16.0 1:0.8304725938464719 2:0.0329568584011502 3:0.2797978679662171 4:0.5312654220568207 5:0.6814350721451109 6:0.8284965695207771 7:7.365167878128852E-4 8:0.14209482392289155 9:0.3545672549425619 10:0.7060019219284426 11:0.851670042088638 12:0.026731069205483935 13:0.30565685980862023 14:0.41410395015121093 15:0.6702080288423011 16:0.8247771398121775 17:0.030975510098566594 18:0.15355916844998832 19:0.38782368943248585 20:0.5973286290980913 21:0.7224870621092538 22:0.0743457624128116 23:0.327748638428985 24:0.6224258247063781 25:0.6036741155543951 26:0.5182430395014571 27:0.6250179605408711 28:0.33664229302836024 29:0.5768602975014789 30:0.07142857142857142 31:0.375 31:0.375 
16.0 1:0.8767920142036582 2:0.011904225592305442 3:0.18009576052323642 4:0.2225635970688626 5:0.5166665640864019 6:0.834598446632934 7:0.043729476398809516 8:0.26964874693613106 9:0.27645139291551074 10:0.546392252163796 11:0.8372263480203173 12:0.04490327139485343 13:0.3100005197858097 14:0.2694954440947398 15:0.5451114032047778 16:0.7932003139921813 17:0.06727355035737548 18:0.3307644438371836 19:0.3916573355609929 20:0.4856647457820036 21:0.7986546965739962 22:0.03702904266938315 23:0.18180239096338077 24:0.2427368096609389 25:0.41378783524303037 26:0.48929540657352477 27:0.5738065610411436 28:0.578636778194963 29:0.7155023565603327 30:0.2857142857142857 30:0.2857142857142857 30:0.2857142857142857 
5.459501674745008 1:0.4347428772697199 2:0.09529098806364834 3:0.6954384848513201 4:0.7303317103898553 5:0.45985669295744175 6:0.4057303518745484 7:0.07228066354272857 8:0.6325475042775636 9:0.6685429897005354 10:0.5375471138064037 11:0.4605630156942037 12:0.057262988504997815 13:0.6712942693452908 14:0.6655106113079995 15:0.5765527890307053 16:0.6478322028165616 17:0.08592000683121157 18:0.39747512671706237 19:0.29430369797331896 20:0.417088196996229 21:0.6569008668568019 22:0.011719527194940215 23:0.2376938228146023 24:0.28888962703691595 25:0.3957857318180976 26:0.4422555030656345 27:0.5849283106655414 28:0.44529943916581555 29:0.6065536173924274 30:0.42857142857142855 31:0.125 32:0.0625 
16.0 1:0.732718856889531 2:0.05755114610486442 3:0.20128211061486484 4:0.35904317294263327 5:0.5833328951035284 6:0.7162919905557887 7:0.1236602833580898 8:0.2755199213240623 9:0.2998294871881771 10:0.5806904638193274 11:0.6991583194594074 12:0.09662048864683566 13:0.23637154018760675 14:0.3046449217653503 15:0.5821145895101895 16:0.6727529272116844 17:0.15516502021823267 18:0.24640401565265146 19:0.3268622538266499 20:0.5139486724976609 21:0.8895989567255841 22:0.009190176458586004 23:0.02933245802964095 24:0.20771404736388097 25:0.4676511285501968 26:0.390592019298422 27:0.6955556511007057 28:0.5346909293129911 29:0.7024477885777919 30:0.5714285714285714 30:0.5714285714285714 32:0.125 
16.0 1:0.6554892960186852 2:0.03870437634067623 3:0.4787233043731057 4:0.3723442661951721 5:0.41876051062784786 6:0.6350994340451249 7:0.06700484944788823 8:0.49779199826537973 9:0.4069809510401971 10:0.47804792335529767 11:0.6387577203525893 12:0.06448455739776217 13:0.4247175027617808 14:0.44096512708543767 15:0.5608843621910713 16:0.6003719597308346 17:0.14654415283451783 18:0.6116837322337562 19:0.591178550828998 20:0.4853454016301242 21:0.6353181588645354 22:0.03474514845340019 23:0.3613527941484727 24:0.4195245955970954 25:0.44827876279336853 26:0.4350185948336514 27:0.6410622722776742 28:0.4817839693582302 29:0.6371450128140672 30:0.14285714285714285 31:0.125 32:0.0625 
16.0 1:0.6789215103860188 2:0.04842308198503459 3:0.5207042175837198 4:0.42651466372416796 5:0.4466066472416602 6:0.6205777747009719 7:0.031535713255073906 8:0.5462718723411609 9:0.49566851791812566 10:0.540531803540578 11:0.5907182454560761 12:0.07095573932329924 13:0.5318356597346207 14:0.45120345029441783 15:0.5014627113170681 16:0.6284674502631278 17:0.14215081098867585 18:0.5371362219397419 19:0.5818527337110506 20:0.4976132009944663 21:0.5102228685454466 22:0.12991498800960244 23:0.5273927021754907 24:0.6012050774073517 25:0.48102254456050375 26:0.497436928334506 27:0.6874698346214563 28:0.4332652877695821 29:0.6581533841972237 30:0.21428571428571427 31:0.5 31:0.5 
16.0 1:0.732461199943761 2:0.04201027805296948 3:0.17097197534670389 4:0.32680707902214634 5:0.6279745558617783 6:0.7249074100612098 7:0.12575606039054468 8:0.20718912550136015 9:0.25391859324454225 10:0.5939703086424377 11:0.6853100597124618 12:0.12300160434585854 13:0.268219568498644 14:0.2790023142987425 15:0.5516547959549905 16:0.6694592413452034 17:0.08640414826631711 18:0.41585764964883337 19:0.317537923018321 20:0.41251911261043095 21:0.5961948629381407 22:0.01685878961900813 23:0.31779220457092683 24:0.39300637425123475 25:0.4576380394194934 26:0.5827721379033067 27:0.4262845865410669 28:0.567165039215806 29:0.724507973845197 30:0.14285714285714285 30:0.14285714285714285 32:0.125 
16.0 1:0.7132464733487871 2:0.044881082404025587 3:0.532679877389147 4:0.5080332080341925 5:0.5039665451547509 6:0.7137735092342337 7:0.029341394809248487 8:0.38095585242039975 9:0.39669315769812535 10:0.562929575489213 11:0.7393499425408516 12:0.06216327473551885 13:0.43964046134091195 14:0.49160977319038096 15:0.624272581129364 16:0.7004551570234873 17:0.059062020719618524 18:0.3722271913694902 19:0.5392365829972159 20:0.597275217889956 21:0.5786913627340797 22:0.09696679965202898 23:0.5394738990442133 24:0.6634218609346499 25:0.5459820395858828 26:0.529198914463765 27:0.6863304636360468 28:0.3842185779951658 29:0.6644820260584077 30:0.2857142857142857 31:0.125 31:0.125 
10.164434186531235 1:0.6981051872254725 2:0.020780505895121495 3:0.5109482394035636 4:0.4677541167095087 5:0.4834768922087614 6:0.6805129584000825 7:0.017210153100253176 8:0.44495506207177055 9:0.36564412378155386 10:0.5109350127074196 11:0.6549872562472773 12:0.01494009718435641 13:0.4431596901007629 14:0.3986384530698238 15:0.5288360586802726 16:0.8045440484291081 17:0.025008069740684934 18:0.18552312577021737 19:0.196702663245811 20:0.4596930056849552 21:0.7439517468345171 22:0.007567552482182761 23:0.18028883463528567 24:0.1732882754477415 25:0.3726933933004266 26:0.4355211579053168 27:0.5812410827465948 28:0.5805600568775239 29:0.7532869818116787 29:0.7532869818116787 31:0.25 31:0.25 
16.0 1:0.5347035554406266 2:0.12050377766957776 3:0.6226125010738259 4:0.5305929163479551 5:0.4340535298907387 6:0.5210326365202542 7:0.37832101694649645 8:0.5244638164921127 9:0.511073833288002 10:0.5188232324334536 11:0.4909835502789409 12:0.196475578241038 13:0.6090798113519774 14:0.4902295358075082 15:0.4976396096379562 16:0.6794674882680737 17:0.1324297738490625 18:0.29278284190110776 19:0.2218781378222903 20:0.42671949698433354 21:0.7617852167685862 22:0.009461866572479691 23:0.08612034878867858 24:0.2361442945838373 25:0.44413443898480515 26:0.4816564478842092 27:0.5565710317115968 28:0.5208318069189559 29:0.720200255621727 30:0.5714285714285714 31:0.125 32:0.25 
16.0 1:0.6891042298205516 2:0.059102591876652226 3:0.47687939201507495 4:0.37827052294412666 5:0.42321635445006894 6:0.7085308852454467 7:0.09292330551396893 8:0.3648792470047166 9:0.36608817940344046 10:0.5452316060489909 11:0.6527520737940159 12:0.05652868111275328 13:0.36748878369751964 14:0.29082222372384076 15:0.491654111769114 16:0.6413356051819545 17:0.1218521034974468 18:0.4701580289465857 19:0.38960238945076003 20:0.4268009538027195 21:0.6840997634159282 22:0.033326934611378665 23:0.2750437985860663 24:0.36697777046258134 25:0.4485250838357621 26:0.45934264750226156 27:0.6309145794641781 28:0.5400839920901799 29:0.7784457813536159 30:0.14285714285714285 31:0.25 31:0.25 
10.50246312342361 1:0.8142615973531571 2:0.01591230476282516 3:0.1918560790247549 4:0.2823584715365389 5:0.5745703021128463 6:0.8784655397448524 7:0.037215081623057804 8:0.146591589702029 9:0.1890688624075446 10:0.5722775768358358 11:0.888637520544102 12:0.020127293137457314 13:0.15836485254548754 14:0.21404455762513627 15:0.5905735296792303 16:0.8637364497827297 17:0.035962081272134586 18:0.18712329072640685 19:0.23391465512694826 20:0.5114063424042466 21:0.7784004925207912 22:0.031892912097490594 23:0.14127274176437343 24:0.31752807423409724 25:0.5000019941109922 26:0.5140215096994671 27:0.4650783512236905 28:0.5998618936660411 29:0.7925283160170512 30:0.07142857142857142 30:0.07142857142857142 30:0.07142857142857142 
16.0 1:0.7694444798523461 2:0.0246225686375475 3:0.2976696366638177 4:0.26141969894257105 5:0.48969673610814457 6:0.7635389811771045 7:0.17489605746486267 8:0.3684239092147374 9:0.2927378623115575 10:0.4756978453461737 11:0.7337501097935913 12:0.05183909123374205 13:0.21272046365223093 14:0.21266032822680425 15:0.5288335577196062 16:0.6793261685793587 17:0.14308210824379983 18:0.5885953641236502 19:0.5089216877991065 20:0.4305894851449905 21:0.6096396887540556 22:0.036701647466914296 23:0.4905362135882836 24:0.40752662928502154 25:0.359802891547271 26:0.3832545984521057 27:0.5986071477618602 28:0.5467216569332636 29:0.6582315218422566 30:0.2857142857142857 31:0.125 32:0.125 
16.0 1:0.7108338733564983 2:0.014205049863463456 3:0.3344902459297169 4:0.4410861983224059 5:0.5781468142486412 6:0.6601550858759945 7:0.04382333800614402 8:0.3799401695443892 9:0.35362876031925466 10:0.5391449532046005 11:0.8133886342335743 12:0.036157568678542806 13:0.27532231735721935 14:0.28097163599494623 15:0.5577323813214544 16:0.7695901775568703 17:0.029608334127743004 18:0.22675614454462192 19:0.2529899980925129 20:0.47609396762827033 21:0.7716536702827144 22:0.004188006250694275 23:0.1375337157063289 24:0.2570225735624307 25:0.44827686331396854 26:0.5047743491808222 27:0.5774355702522045 28:0.5714569803992346 29:0.7429580984341552 30:0.14285714285714285 30:0.14285714285714285 30:0.14285714285714285 
16.0 1:0.6149204813253337 2:0.03370059807267893 3:0.5683357555038665 4:0.3881647514680061 5:0.36414975241603564 6:0.5758555249613866 7:0.09147114181186419 8:0.47688535172412305 9:0.3465846374589397 10:0.4474291100959974 11:0.5710235187983034 12:0.09680025379849512 13:0.4935415225356205 14:0.4009491033313124 15:0.509522512611279 16:0.571179907680389 17:0.14940408928000123 18:0.5657080488284949 19:0.5588570720090691 20:0.45670578118702715 21:0.4563640073101088 22:0.017842400756553675 23:0.6285076679353009 24:0.49689139679393485 25:0.3653648130571678 26:0.5388481254397423 27:0.6429198617331139 28:0.5471165492106295 29:0.8024558560359556 30:0.21428571428571427 30:0.21428571428571427 30:0.21428571428571427 
16.0 1:0.59015638918386 2:0.06295385683664381 3:0.30174700299991053 4:0.4133691151487252 5:0.5666663943055449 6:0.5345881180524215 7:0.16164403799540558 8:0.3122951890453361 9:0.25987708609109156 10:0.4954703943989396 11:0.4498010222681036 12:0.2072224417821939 13:0.33210688199486676 14:0.34426608765999983 15:0.5295734277233318 16:0.7945743447107408 17:0.02691311449991199 18:0.11821144277589236 19:0.11560391456645616 20:0.4170879910792274 21:0.7992650707939524 22:0.012517199472900533 23:0.13799433387343613 24:0.15480795072596115 25:0.36206371411537336 26:0.4871846416725298 27:0.489873207358805 28:0.6728480660648146 29:0.7788359621915295 30:0.2857142857142857 31:0.125 31:0.125 
16.0 1:0.4804226974404144 2:0.028255527811612346 3:0.7178473493560452 4:0.8567138603392983 5:0.5637998301704833 6:0.43506263569565806 7:0.05869340647587491 8:0.6475431492976247 9:0.7806411489236652 10:0.6017370574088633 11:0.3448285684630775 12:0.1387553560807143 13:0.815617962728433 14:0.8624263341069017 15:0.5697298337814662 16:0.743844744885836 17:0.029243651394302635 18:0.153039612877737 19:0.2651135444471651 20:0.5283418956807293 21:0.8615319913621314 22:0.005579566126755374 23:0.07111226385670309 24:0.2340931458685337 25:0.46551424852938494 26:0.5049753744094883 27:0.7258135960336003 28:0.3470237538967135 29:0.6152431323859697 30:0.07142857142857142 31:0.25 32:0.0625 
11.481784025927935 1:0.5267331934890437 2:0.130559918521443 3:0.4870154650015102 4:0.4796133989353349 5:0.4905738982578303 6:0.5025869388268509 7:0.2304369224259132 8:0.4396765017497081 9:0.4677828695699456 10:0.5015429784359032 11:0.44269747445072605 12:0.22097512197022315 13:0.5725430029150221 14:0.42070261398581893 15:0.44648874146637085 16:0.5783876289299148 17:0.15549353740686728 18:0.3171568587005866 19:0.29254673270642123 20:0.44408248260510563 21:0.7451219660711261 22:0.01026447533517552 23:0.07123137525035893 24:0.22533909149355297 25:0.4339858589857493 26:0.427480148758669 27:0.6631014525977234 28:0.5530685434134265 29:0.7272128555706778 30:0.5 30:0.5 32:0.0625 
16.0 1:0.5843784677213514 2:0.10066814434884493 3:0.2682469420791206 4:0.3650324792302852 5:0.4694115444032313 6:0.5738328100113559 7:0.18692670032692324 8:0.3649899270348243 9:0.3075750770802046 10:0.5057718188198066 11:0.6597107666368432 12:0.08749709707156533 13:0.311771380795037 14:0.31583099609449306 15:0.5773880140073251 16:0.6112342415655125 17:0.14602322859423103 18:0.30419525769466865 19:0.29249743756008867 20:0.4090539537643629 21:0.7614773253705092 22:0.038028476686864446 23:0.15490133905959558 24:0.23544556343114528 25:0.43135522913454444 26:0.4511006131269473 27:0.5244765634216229 28:0.591859700765002 29:0.7901466400051618 30:0.14285714285714285 31:0.375 31:0.375 
13.96432473333909 1:0.37831562759927884 2:0.21748127367117298 3:0.6541890435181159 4:0.46890095646120866 5:0.28739597685732676 6:0.4265489496022749 7:0.5690568056339435 8:0.6191512129734601 9:0.3829359387707176 10:0.33415534651946704 11:0.34533825391931794 12:0.2784957847176399 13:0.5308344954287473 14:0.4426779684810374 15:0.45268817474850204 16:0.37225029517711866 17:0.5367347205702913 18:0.8065180404737274 19:0.5861802402024624 20:0.31599816770742 21:0.5294198427465088 22:0.03669052342278019 23:0.4428138551889698 24:0.6378697007718992 25:0.5208364409409326 26:0.3412403256608703 27:0.6882313744259383 28:0.4927488796414081 29:0.6035869238173088 30:0.5714285714285714 31:0.25 32:0.125 
16.0 1:0.7190012591792232 2:0.040708785345042166 3:0.43707933118569947 4:0.44936600045926933 5:0.5029009255477962 6:0.737283182357295 7:0.0978652450092638 8:0.3913291696924718 9:0.39450640206925036 10:0.5735952409994783 11:0.7789215524997405 12:0.03437607907806417 13:0.42499927610150856 14:0.4028654596989989 15:0.5831655228202168 16:0.762588348380122 17:0.0939796659581011 18:0.23318631764124584 19:0.20421700246063898 20:0.41316739907088496 21:0.6822017478675946 22:0.009031296520673318 23:0.12968354307210864 24:0.32762388282742816 25:0.4482772197145456 26:0.481254397426877 27:0.6175709849582215 28:0.505942864896441 29:0.7126817905292033 30:0.35714285714285715 31:0.375 31:0.375 
1.3300214763272067 1:0.106640284068064 2:0.16811316574305935 3:0.6042021863152546 4:0.7976467227208024 5:0.3663858639812855 6:0.05014425468449742 7:0.7251600431116575 8:0.5300953187735321 9:0.7947200529101024 10:0.5321425153956294 10:0.5321425153956294 12:0.361528655849647 13:0.4804933710174691 14:0.6953630278318713 15:0.6004367776199521 16:0.4707198462035748 17:0.26138264150940166 18:0.300232993206763 19:0.3482015218998514 20:0.4378974918356495 21:0.5091851243107767 22:0.1212545040201371 23:0.14753530504498183 24:0.3461995191209471 25:0.46827976336731136 26:0.4105940295507085 27:0.528211207727709 28:0.45292896915841047 29:0.5645307859784526 30:0.35714285714285715 31:0.125 32:0.3125 
16.0 1:0.776203923678278 2:0.04554926212327446 3:0.3605885067313397 4:0.3164342021473904 5:0.45848703253081935 6:0.7350124453780915 7:0.10988479921475008 8:0.2861212745519515 9:0.22752905805469326 10:0.4994306482308617 11:0.7295515082788282 12:0.056331894775339085 13:0.4072128539442774 14:0.3347289820696289 15:0.5189222828226616 16:0.7172484717144352 17:0.10540101407155135 18:0.3352406111095804 19:0.2892618230505496 20:0.39845288984281824 21:0.6608173881105277 22:0.036114206683385316 23:0.3762438771513128 24:0.40024844515449276 25:0.4140480625238648 26:0.44155191476530314 27:0.5658925430244723 28:0.5801827091633366 29:0.7219314611079921 30:0.2857142857142857 31:0.125 31:0.125 
16.0 1:0.5702657176534509 2:0.06322288024350378 3:0.5170455206516581 4:0.4604176283966514 5:0.4288625110827855 6:0.5655503520749079 7:0.1318622848701874 8:0.47281546630244614 9:0.49174032348332547 10:0.5564489766871797 11:0.4951608780403421 12:0.11275373245960726 13:0.4908297583270269 14:0.3644163170722323 15:0.4637836230533782 16:0.5996709535907626 17:0.10188238607775342 18:0.5487425530189239 19:0.5084698974564676 20:0.4663450930036221 21:0.4585104176254815 22:0.17626768209109261 23:0.5370455876567183 24:0.4555918040260336 25:0.38596979650034513 26:0.4989446175495022 27:0.631027061755484 28:0.5016141638938391 29:0.7044783525742998 30:0.42857142857142855 31:0.125 31:0.125 
3.509880228719144 31:0.125 2:0.11587258901274759 3:0.88145537925143 4:0.6057642380642986 5:0.07726591052014999 6:0.12465396027818793 7:0.4167868372778093 8:0.8265703102888476 9:0.5356174420808664 10:0.24390634549497814 11:0.25479915915688756 12:0.18930577239593482 13:0.6062028899762796 14:0.626640210307288 15:0.519897203208203 16:0.24002043428358505 17:0.6095983955116964 18:0.8070747428706863 19:0.13965817474373654 20:0.075890672284111 21:0.0851715878889847 22:0.9980654666576366 23:0.7927528414846692 24:0.156120573707444 24:0.156120573707444 26:0.17951552919891423 27:0.45135962201171903 28:0.7249839875536769 29:0.5810777007845765 30:0.14285714285714285 31:0.25 32:0.5 
16.0 1:0.8284536295240877 2:0.02182791271949273 3:0.2647719897673928 4:0.31483092306431204 5:0.5544266456694017 6:0.810317314828414 7:0.06963839995747209 8:0.22999903443912786 9:0.2905673283404624 10:0.6064540564342905 11:0.8253585921457522 12:0.03613972817739348 13:0.21501196716781876 14:0.2785593220222826 15:0.5912808186125715 16:0.7756071148030408 17:0.008212893578426786 18:0.1890603098250036 19:0.454873920084676 20:0.6307488203595962 21:0.6793457509208981 22:0.07369838735902244 23:0.18051811017950384 24:0.4491979718138375 25:0.5769167994343554 26:0.5881998190772942 27:0.5394161023379743 28:0.4712498712479435 29:0.7371261887450328 30:0.07142857142857142 30:0.07142857142857142 32:0.0625 
16.0 1:0.8250643759400866 2:0.024431313873101285 3:0.10268145796510293 4:0.19111345053975506 5:0.5615884356052925 6:0.7990820633801803 7:0.12239107202229978 8:0.08838152752574759 9:0.2154540199263117 10:0.606112640816408 11:0.7828251254314171 12:0.06433143477985157 13:0.11898681475082042 14:0.23961415925105328 15:0.5285833448891556 16:0.7930472319749103 17:0.10704674467895686 18:0.16389812082996105 19:0.248627115052936 20:0.5283323095697737 21:0.8877291956051796 22:0.0073332772892737465 23:0.04636256342030566 24:0.23567431175319517 25:0.49999938583566134 26:0.438737561563976 27:0.5964601562442238 28:0.5858862255721191 29:0.8266810629358222 30:0.2857142857142857 31:0.125 31:0.125 
16.0 1:0.3300024720101512 2:0.18316179780122901 3:0.6018993008209785 4:0.46351776072235534 5:0.33405183527317295 6:0.3431064365256938 7:0.3834323382662105 8:0.5369782932716731 9:0.3935208604454232 10:0.39302347341292543 11:0.5093714399061395 12:0.22427676782344866 13:0.4574800373410475 14:0.1123752690846609 15:0.2506100070647552 16:0.4781774336695303 17:0.2532660788749219 18:0.5449003010870177 19:0.5107477397754837 20:0.4814514646986479 21:0.4863769316223042 22:0.3832272192952105 23:0.3808043271015091 24:0.1631892214449111 25:0.20897809150951552 26:0.2834455724193386 27:0.6085266014650521 28:0.6618925025069203 29:0.6056585861855697 30:0.2857142857142857 31:0.5 32:0.5 
16.0 1:0.6544072355621359 2:0.03271822705492619 3:0.46161363452172466 4:0.5181967980978416 5:0.5077157416523191 6:0.6121093138256352 7:0.09217752512478755 8:0.4511413193681983 9:0.5435862377599687 10:0.5841416433896774 11:0.5901753870356634 12:0.07006013352215942 13:0.4173532410994687 14:0.46061965959145007 15:0.6027049898455377 16:0.5722965763731755 17:0.20671109641209312 18:0.4941810355847421 19:0.5875788009215381 20:0.5413161541093524 21:0.45929658930150713 22:0.32420618481562175 23:0.6223557739998014 24:0.7164580699015859 25:0.4869731518323243 26:0.5710121620263342 27:0.7154520655039184 28:0.35274821804705314 29:0.6446142613379503 30:0.35714285714285715 30:0.35714285714285715 30:0.35714285714285715 
16.0 1:0.8273746701032905 2:0.02778791723108881 3:0.20701395095414482 4:0.2273866667507571 5:0.5304975356577617 6:0.819087577708113 7:0.043520975788683615 8:0.0827959152963836 9:0.2989990815823238 10:0.6755879100828477 11:0.8360884331691328 12:0.02592342563130618 13:0.15783031332047387 14:0.23822791501791815 15:0.576680939565127 16:0.8468966245800895 17:0.03343917965235454 18:0.09756499259953091 19:0.38634160006479823 20:0.6307458737784741 21:0.8190912639575808 22:0.04274407972827819 23:0.1942976398777899 24:0.2610272523075566 25:0.44828186161548056 26:0.5203538044024525 27:0.5272855304132497 28:0.5413697778782773 29:0.6926470953852573 30:0.35714285714285715 31:0.25 31:0.25 
16.0 1:0.6253603839574846 2:0.08289825126974672 3:0.37101163231800266 4:0.3590936793523509 5:0.5145226520307624 6:0.6651936013153036 7:0.17293090463554503 8:0.2571236345187733 9:0.3900178057505905 10:0.6561891434262944 11:0.6062785477981382 12:0.21143833803784612 13:0.3385625132876835 14:0.40538534252409686 15:0.6087415720674544 16:0.6768225951260016 17:0.09227506438128663 18:0.2382169121504159 19:0.33562089146028795 20:0.4801101475919711 21:0.8430706949054201 22:0.028910208410300557 23:0.1514283358391067 24:0.23854204288146194 25:0.45781156471144335 26:0.5471906724293899 27:0.6097345648060614 28:0.5466376302391441 29:0.7274751748076089 30:0.14285714285714285 30:0.14285714285714285 30:0.14285714285714285 
16.0 1:0.1679108772633436 2:0.09814492550622732 3:0.7665493058476087 4:0.46609222741253453 5:0.14066041246830974 6:0.13992377240405598 7:0.5600770542321912 8:0.6996859579620619 9:0.43264818014731377 10:0.3062488519155469 11:0.4311374935871932 12:0.12814736779089514 13:0.5399707077590057 14:0.4481168490552297 15:0.48138316824616045 16:0.39567736314651014 17:0.8029265380288179 18:0.5807503212377717 19:0.0985900002457736 20:0.14786611443272568 21:0.4530587230503221 22:0.1999945724856252 23:0.44874091124354465 24:0.06722014417022337 25:0.13186552924443537 26:0.1747914363252588 27:0.6152394397111811 28:0.7576612308166073 29:0.7808797182579688 30:0.14285714285714285 31:0.5 32:0.25 
16.0 1:0.3531503494467587 2:0.16672040858798065 3:0.6934546413490164 4:0.45574936334188754 5:0.21667029862370166 6:0.3682774220762052 7:0.7752245930688991 8:0.6212583041434843 9:0.3331652669247058 10:0.22834724901376746 11:0.5821689961106951 12:0.013875936658250628 13:0.5140660113518255 14:0.3695798313279945 15:0.4705188877841891 16:0.5264497831449512 17:0.22888346100582818 18:0.263753533845139 19:0.18783576824597153 20:0.3447566568377452 21:0.43425682708244995 22:0.37206079494469646 23:0.2552702994735423 24:0.14469335292746172 25:0.25861969057543177 26:0.255402553020404 27:0.7063000687383132 28:0.6739724034228437 29:0.8162806379482049 30:0.07142857142857142 31:0.125 32:0.25 
16.0 1:0.5935855251242775 2:0.07468279234087903 3:0.6041947805768666 4:0.39456301110483805 5:0.32655406030205203 6:0.5801609246577009 7:0.21659110139032614 8:0.5047497450633148 9:0.4308118506605078 10:0.4611540316701446 11:0.5584420101672708 12:0.03378814109097555 13:0.5265433553153182 14:0.441730114652982 15:0.5027348067519274 16:0.6093322510277267 17:0.14050933501639243 18:0.4689382146735757 19:0.2741218184138242 20:0.2902735205216265 21:0.542857394103167 22:0.17584593683015884 23:0.2898389999913567 24:0.24652786127021487 25:0.34482657968653585 26:0.24876872047441934 27:0.7840730721472579 28:0.5943329944085023 29:0.7904678161695169 30:0.35714285714285715 31:0.25 32:0.0625 
16.0 1:0.5205189425768147 2:0.0721855660729345 3:0.48989056793897007 4:0.554010720381836 5:0.5278499166151316 6:0.5493506762992753 7:0.14308171969629163 8:0.4588848783466978 9:0.5510025628999349 10:0.5695822181155172 11:0.46972128803917734 12:0.28421840230272727 13:0.5769816354671862 14:0.5251942217111604 15:0.5108815016698435 16:0.5514098437042979 17:0.21295511108367468 18:0.4006973339122998 19:0.41588314276695615 20:0.507768240219428 21:0.6203971452708271 22:0.06403393954898987 23:0.17173654812314795 24:0.43870929109441265 25:0.5353254938995625 26:0.46969544677857067 27:0.5491804796510026 28:0.3957994452558342 29:0.5694798417560409 30:0.5 30:0.5 30:0.5 
16.0 1:0.6707574331580786 2:0.03541817423095638 3:0.34456047356792624 4:0.3457073475283543 5:0.4822802313606614 6:0.7032046158419424 7:0.09684899383453002 8:0.3056718694388654 9:0.2854116939483988 10:0.5454517506482421 11:0.7039877783599999 12:0.040337354941221384 13:0.3186933401396386 14:0.3246257749958016 15:0.5676512504051752 16:0.7309618707396316 17:0.07743873497455625 18:0.2853795813760516 19:0.18444141846470585 20:0.40201762126496743 21:0.7050919836703629 22:0.12956219592476134 23:0.15597215337326675 24:0.2777936868092581 25:0.4183112290056264 26:0.4401447381646395 27:0.6166295124057468 28:0.6157707227049561 29:0.8193863556450064 30:0.21428571428571427 31:0.5 31:0.5 
16.0 1:0.5169281627003538 2:0.10063720015045934 3:0.4381730173450856 4:0.41752441175099425 5:0.48202411796460637 6:0.6386198761378561 7:0.09842563182426088 8:0.43672403088889233 9:0.3832404349504323 10:0.48420255942969836 11:0.6142066543569659 12:0.08415995302943201 13:0.3876633609920576 14:0.4186453340139414 15:0.6092802234917 16:0.6419348053411793 17:0.17305833002609775 18:0.46463394706894373 19:0.4894551946595329 20:0.4349016911790108 21:0.5349668768772388 22:0.11510838380951305 23:0.4472006463196105 24:0.46172456722648747 25:0.41447493464677276 26:0.3812443461654437 27:0.6203799396504599 28:0.46326248572021084 29:0.6388209130840458 30:0.2857142857142857 31:0.25 32:0.0625 
16.0 1:0.7409451899105577 2:0.03248600517769396 3:0.20319444866041247 4:0.28904457878312284 5:0.5543914394250273 6:0.7748902907971625 7:0.0468380367496583 8:0.04961821265452898 9:0.10285395101257667 10:0.5204745943431355 11:0.7633169452558586 12:0.0715158820897454 13:0.16278542406469085 14:0.16873203462583652 15:0.5292897875915346 16:0.7219465901140252 17:0.09089564768144487 18:0.21877615569677278 19:0.22927874123300862 20:0.44841738927983865 21:0.8992606714229415 22:0.02818397174703343 23:0.04165801911749253 24:0.10078908403168568 25:0.3903258855415112 26:0.37581666499145633 27:0.4669342874930295 28:0.6927973604005592 29:0.7887756795057734 30:0.14285714285714285 31:0.125 31:0.125 
16.0 1:0.7915813506089224 2:0.013669889256953041 3:0.3034596614380347 4:0.38229897654252293 5:0.5789445743493918 6:0.8487146935435286 7:0.04748993598619512 8:0.18317513581415223 9:0.32034327955605757 10:0.6651231712123926 11:0.8501117079495392 12:0.016987739278150903 13:0.16259175787513383 14:0.24593387531012303 15:0.626477244291815 16:0.8263964029553081 17:0.05478220834261973 18:0.2577287591586438 19:0.4472703455942182 20:0.6101045443594101 21:0.7836348490517597 22:0.012105428716380413 23:0.0999933041509793 24:0.3342422106712549 25:0.5469719915706487 26:0.5222635440747813 27:0.666008690790874 28:0.504244802471219 29:0.7374519313951645 30:0.07142857142857142 30:0.07142857142857142 30:0.07142857142857142 
16.0 1:0.4792627913454684 2:0.034192912734428205 3:0.6354880461878097 4:0.7220561721664782 5:0.49846207785686925 6:0.532088226899353 7:0.06110288883093325 8:0.5417629393317875 9:0.5748251936454805 10:0.547314486162123 11:0.5296737301594986 12:0.10382615940067665 13:0.5659491518776806 14:0.574897654763899 15:0.5766990662777178 16:0.6203852882205766 17:0.07403581402438268 18:0.5559693101855222 19:0.5159042746328271 20:0.44443431722897464 21:0.47690444173499436 22:0.06363731986444973 23:0.6075194349498837 24:0.5804626910246631 25:0.3893688827399094 26:0.6707206754447681 27:0.6225371794445169 28:0.38510742090211275 29:0.6565505476992292 30:0.2857142857142857 30:0.2857142857142857 30:0.2857142857142857 
16.0 1:0.7467862668797131 2:0.026157019009058837 3:0.341507097009716 4:0.4269480665476959 5:0.5607613426277334 6:0.741978432966802 7:0.037576994235947736 8:0.34137131688921446 9:0.3486885848454085 10:0.5913032452305146 11:0.7957504390747345 12:0.025349777091480983 13:0.2830743093150562 14:0.35613100672905884 15:0.5781825781660836 16:0.7522400530265512 17:0.06247913002408982 18:0.3066595798705703 19:0.2735672419904077 20:0.44556122935557396 21:0.7304112603378536 22:0.0018232619715802772 23:0.1326916336727452 24:0.3136557692514262 25:0.48275764288851347 26:0.4541159915569401 27:0.5655135086257193 28:0.5247852153883952 29:0.6632348680615344 30:0.35714285714285715 31:0.125 31:0.125 
16.0 1:0.4796560363094169 2:0.08536676928287916 3:0.5051022162351013 4:0.48363804158067 5:0.4332428440280329 6:0.47073464521912456 7:0.1977784973289949 8:0.4213891708413286 9:0.4372145761062628 10:0.5258126691255742 11:0.44214981611282256 12:0.1413266373818324 13:0.5015774613469925 14:0.39459100866203095 15:0.48111517618117794 16:0.49884454340932904 17:0.26603059949626856 18:0.5041344531392636 19:0.26749844994000954 20:0.3061205499444997 21:0.6468405195472219 22:0.04277270047620458 23:0.269271655444447 24:0.2649011972316189 25:0.3793102517389662 26:0.4449693436526283 27:0.6438709248363592 28:0.5917911634530371 29:0.7888619353476941 30:0.2857142857142857 31:0.125 31:0.125 
16.0 1:0.6828341378997126 2:0.041456941784607695 3:0.4066671284052618 4:0.48207819780908767 5:0.5475780191183325 6:0.6874550162184447 7:0.027228969872058313 8:0.4080321487887368 9:0.45388414076713046 10:0.5858675547016042 11:0.649007083832774 12:0.13943438463235616 13:0.29266185861412686 14:0.23286955516806782 15:0.4826843356932761 16:0.6400075133353142 17:0.1607153819669895 18:0.5177615833297823 19:0.5738282604805593 20:0.513590450335732 21:0.598708978528075 22:0.08531095030168451 23:0.32346411999226826 24:0.46380755564970155 25:0.4543014979045326 26:0.43984320032164004 27:0.663044224815651 28:0.45609118099439594 29:0.6531840329274081 30:0.42857142857142855 31:0.125 32:0.0625 
16.0 1:0.7672246790349232 2:0.009750885559274577 3:0.2856659575471254 4:0.2640684198929186 5:0.440933014945241 6:0.749932857937503 7:0.12101607162351873 8:0.2687683544076742 9:0.1893677005887939 10:0.44073775144756266 11:0.7126759375086333 12:0.04336910543337415 13:0.27579404491990706 14:0.1543106208510379 15:0.4086126833034066 16:0.7354725555092259 17:0.06781434427523626 18:0.2736629021840154 19:0.28210746051796165 20:0.49158895561623867 21:0.7062984451975095 22:0.09408622387739435 23:0.18171839635826892 24:0.23974604272794756 25:0.3620704875706877 26:0.2878681274499947 27:0.6827199339006318 28:0.6912752631239336 29:0.8998615340043292 30:0.2857142857142857 30:0.2857142857142857 32:0.0625 
16.0 1:0.77725751437207 2:0.0045416267725825 3:0.30938566543858864 4:0.3780862925711496 5:0.5666668015946905 6:0.7661302664597662 7:0.06913044997759948 8:0.2824481046996466 9:0.29272388371129554 10:0.5949966563466378 11:0.736424046291015 12:0.037004772966282524 13:0.33770172083030475 14:0.3383525165139432 15:0.58595071521984 16:0.8050303875163245 17:0.049405800783904066 18:0.2573226114795691 19:0.221660676305236 20:0.43427444817810973 21:0.7274530640947418 22:0.03087336068358283 23:0.06318258515850647 24:0.3003187118208877 25:0.48275748204006946 26:0.4028545582470597 27:0.730477344378292 28:0.5648596250254017 29:0.7883723065979072 30:0.21428571428571427 30:0.21428571428571427 32:0.0625 
16.0 1:0.441868075853376 2:0.06252682608706848 3:0.7310715584341926 4:0.8980675916000038 5:0.5428275923238634 6:0.44818684630348476 7:0.24049839243711899 8:0.6128283038413544 9:0.8425305634500426 10:0.665657209928454 11:0.4376295097667598 12:0.10116090207389472 13:0.6647181642855072 14:0.8251835034347993 15:0.6826766528138786 16:0.6979344497490468 17:0.08845629596647214 18:0.424508042049879 19:0.3922362750083775 20:0.46768340965165967 21:0.6377000952812598 22:0.042168600565171924 23:0.22091866059656062 24:0.4364688352100113 25:0.5496148207325903 26:0.6674037591717759 27:0.5420496284169115 28:0.26621576391680574 29:0.5187634362500827 30:0.2857142857142857 31:0.25 31:0.25 
16.0 1:0.6536168810313738 2:0.056797878232811266 3:0.41575610538305585 4:0.39442897820011547 5:0.48333304111467185 6:0.6275594789573614 7:0.22640908339356083 8:0.4266125082719858 9:0.331270189091804 10:0.46683469950619555 11:0.6790719287888263 12:0.057642074399051564 13:0.37494527303231345 14:0.30536717357569276 15:0.5318674530352705 16:0.7632132535705364 17:0.0907392033261991 18:0.1914756222045188 19:0.203649574963652 20:0.42990406125756037 21:0.7294116242136882 22:0.08574546861544195 23:0.291386372838246 24:0.13426279971291924 25:0.2826686437703482 26:0.38074178309377804 27:0.6162598784225304 28:0.6288750764347683 29:0.7773391696403791 30:0.35714285714285715 31:0.25 31:0.25 
1.9991471078962637 1:0.7759975673579075 2:0.04197267773188138 3:0.17010430157884282 4:0.34229876827269956 5:0.6106218679959262 6:0.8697434445994342 7:0.05664029195665076 8:0.31285935073763993 9:0.36948267711517613 10:0.60688030099669 11:0.858493645977387 12:0.07279105773305698 13:0.18727313941488244 14:0.4017977296851999 15:0.6889930324472169 16:0.8227607821721444 17:0.014886545545772883 18:0.3210809455095041 19:0.5677027404859802 20:0.6162587883961501 21:0.7458457688074648 22:0.03407506483939433 23:0.19207035505087272 24:0.33332315083009695 25:0.46551762100784483 26:0.41159915569403965 27:0.7353547522402163 28:0.4058890406666265 29:0.6501163692785102 30:0.2857142857142857 30:0.2857142857142857 32:0.0625 
16.0 1:0.5607124934473845 2:0.027897652402989078 3:0.5476485775371216 4:0.506593817626308 5:0.44700528788167604 6:0.540511594905605 7:0.09453008958632299 8:0.6125257359239591 9:0.5353034678043534 10:0.50273425024877 11:0.4620405730119074 12:0.051406254648672725 13:0.6504274315221192 14:0.499909032589015 15:0.47655595446202387 16:0.5093529513394266 17:0.17086033536459108 18:0.6704496605073894 19:0.6914338374899914 20:0.4707396489852517 21:0.46154464498956693 22:0.03722403874034583 23:0.53348192791659 24:0.5085715059036146 25:0.41379201271040655 26:0.49482360036184536 27:0.6903630788696454 28:0.46118731130869184 29:0.6757490685637467 30:0.14285714285714285 30:0.14285714285714285 30:0.14285714285714285 
16.0 1:0.7669697852493735 2:0.033494001157133836 3:0.27930490797478635 4:0.28416876028677757 5:0.46681488712493774 6:0.7794587630710014 7:0.014797226743392894 8:0.29829878383219227 9:0.2492872679206041 10:0.4994300368963822 11:0.7443444572874159 12:0.059711248753651164 13:0.33626217124589053 14:0.24076934368197092 15:0.48111007493376584 16:0.7248642449753016 17:0.13091011141075112 18:0.17919840651878996 19:0.08514568300363357 20:0.3396794947951747 21:0.64556704223437 22:0.06259186868731387 23:0.11838645733444354 24:0.1770417528882098 25:0.3448222764130295 26:0.3353100814152175 27:0.5634705320301157 28:0.6771611930063116 29:0.8213651661363598 30:0.2857142857142857 31:0.125 32:0.125 
16.0 1:0.7231062760791672 2:0.03987488346423959 3:0.4244964328304075 4:0.42366675967066025 5:0.4851465653913219 6:0.7178131283555943 7:0.03210575309382598 8:0.2714598177152779 9:0.31639186562720156 10:0.5739312835475711 11:0.6713249787602156 12:0.048971058792912275 13:0.4286263887148137 14:0.42653713905580026 15:0.544739904578982 16:0.6632650611445919 17:0.05802470397660078 18:0.4469817825690461 19:0.5839282872824654 20:0.6051213949659953 21:0.5372014371072138 22:0.04032985565395252 23:0.4489425144467579 24:0.4387089633159969 25:0.40751633994554926 26:0.4388380741783092 27:0.6658745286455473 28:0.46981770759441893 29:0.6248266638117675 30:0.21428571428571427 31:0.125 32:0.0625 
16.0 1:0.5114465443107739 2:0.09591887720849857 3:0.5252468256463287 4:0.4581457420717219 5:0.45415598651014755 6:0.5567342059000373 7:0.22114084880490223 8:0.3423908369127236 9:0.5367193148527233 10:0.6998755237811003 11:0.4915338066774448 12:0.18711001959745024 13:0.35609487245233357 14:0.5711559056852592 15:0.7229713584008087 16:0.5632414781929684 17:0.21621806289610987 18:0.4869108280122462 19:0.391082817741692 20:0.4299000480313771 21:0.5022293839341868 22:0.07944954321554872 23:0.4324499620275786 24:0.4025517359317417 25:0.39823701780469317 26:0.6180520655342244 27:0.49649490489061326 28:0.4530799379961495 29:0.6220477035396844 30:0.07142857142857142 30:0.07142857142857142 30:0.07142857142857142 
16.0 1:0.41683330784001765 2:0.1054498704971642 3:0.5103724921715057 4:0.48007675595144833 5:0.4448625073472392 6:0.45999391717848226 7:0.2995982016944932 8:0.465659467881869 9:0.3927121233132378 10:0.49943073777909003 11:0.427160017421972 12:0.18840694459484425 13:0.4975792901288389 14:0.4725240146238655 15:0.5568375820438367 16:0.39173845264748897 17:0.39081951528242354 18:0.5130472893363428 19:0.3490229350311325 20:0.28175126315258625 21:0.6357880759436334 22:0.13956085689578476 23:0.328291624918575 24:0.31396924424856826 25:0.3620701065230728 26:0.4476831842396219 27:0.49480084596144364 28:0.5606314745554466 29:0.6818712037916059 30:0.14285714285714285 31:0.375 32:0.0625 
16.0 1:0.6505116820376807 2:0.0489433096690081 3:0.3889391205510999 4:0.5425989895200647 5:0.5811170577071363 6:0.643695034817231 7:0.08045163490007902 8:0.4638192899180017 9:0.48869010364840504 10:0.5795812107354874 11:0.6051588931286238 12:0.1554047079060305 13:0.25765773183768415 14:0.25987308948419796 15:0.5455840433884348 16:0.6282170918748083 17:0.12524817947940317 18:0.45175982558342115 19:0.6558760407692459 20:0.6191510954661115 21:0.6680591590190867 22:0.08482224988924149 23:0.2006589570408317 24:0.4275933403910326 25:0.5344823066772 26:0.43140014071765986 27:0.7256192540695646 28:0.4081566537156238 29:0.6332655294764039 30:0.42857142857142855 31:0.125 32:0.0625 
4.017547989209438 1:0.5566007712144319 2:0.050307533605813415 3:0.5095604376918071 4:0.6958702757097855 5:0.6090043044820213 6:0.49878860308149053 7:0.18199734610022883 8:0.5693347645421949 9:0.6933620882490587 10:0.6019856791245162 11:0.4847155353921075 12:0.13451933181403658 13:0.5399715915283336 14:0.5197673243677282 15:0.5372877618587086 16:0.5600688315910465 17:0.1335454520960072 18:0.47431070189360464 19:0.7714407355560741 20:0.6665773311852753 21:0.44057003991628707 22:0.07925844420163325 23:0.598823444599634 24:0.8340915884877952 25:0.5678250630398984 26:0.6323248567695245 27:0.5967831383064723 28:0.24600631982354515 29:0.47565986987545117 30:0.35714285714285715 30:0.35714285714285715 32:0.0625 
16.0 1:0.7057858252898478 2:0.02529422772780126 3:0.3473149768769411 4:0.5341348071569929 5:0.669601295376631 6:0.6545678872558278 7:0.12360966384935652 8:0.37286100016555124 9:0.39876165176683476 10:0.5953340713616595 11:0.6232209149479614 12:0.13045325049802917 13:0.32866862929261326 14:0.45536132660044487 15:0.6689303801923048 16:0.7677634408577301 17:0.029827214334770348 18:0.14603190225072293 19:0.3577002508455955 20:0.562809579683729 21:0.8917677761820815 22:0.01593677823937837 23:0.09937232783209489 24:0.25258848062609995 25:0.500761618323899 26:0.6150366871042315 27:0.5641624698732912 28:0.4865372414661799 29:0.7100824453632574 30:0.35714285714285715 31:0.25 31:0.25 
16.0 1:0.7908501514761369 2:0.03146289949343611 3:0.323008957301369 4:0.4530282920090109 5:0.6449248498503745 6:0.8032015767596349 7:0.10516000460807012 8:0.23560485662725447 9:0.4765708729943946 10:0.7331446978021202 11:0.8164380834768669 12:0.017444734975203956 13:0.1685398596929094 14:0.32787160577070373 15:0.6560819001953856 16:0.7986370211276563 17:0.05415523253066948 18:0.340555614162269 19:0.6140046273879372 20:0.680958249451097 21:0.7352430301260827 22:0.026972801939105336 23:0.16328583981989808 24:0.3453277120916104 25:0.5080992923991428 26:0.6050105538245047 27:0.5122135877798077 28:0.23725353212954456 29:0.335995425396045 30:0.21428571428571427 31:0.125 31:0.125 
16.0 1:0.6055936398180276 2:0.030968415359339748 3:0.5404992748763774 4:0.4911984643188938 5:0.4631943174469427 6:0.6070218096150305 7:0.08116504434489097 8:0.5409730724508102 9:0.42309765070955535 10:0.4758970614509729 11:0.5561755937947915 12:0.13320515793068055 13:0.40913220909377246 14:0.41674911385455676 15:0.5544606265739057 16:0.7164530343013495 17:0.04662196499046304 18:0.28519598053681083 19:0.1330124582667991 20:0.35161570553942184 21:0.7297504731953973 22:0.04642495003792471 23:0.21324146036730204 24:0.20108874596335058 25:0.3479299733040826 26:0.4462760076389586 27:0.6417214896474338 28:0.5976067375773081 29:0.8090523983944287 30:0.07142857142857142 31:0.125 31:0.125 
16.0 1:0.7616029334916907 2:0.07043786616695147 3:0.22749139277518915 4:0.31779730484995494 5:0.5373775972296815 6:0.7571871440333215 7:0.09407600091118322 8:0.23070331476064998 9:0.25183951482341876 10:0.5543363200557692 11:0.7315082555861121 12:0.08369118465252325 13:0.3119752248783791 14:0.2262580580494442 15:0.5085742414884277 16:0.7482342803922286 17:0.07565443211490294 18:0.13315959967744417 19:0.23797156350313056 20:0.48011955037997617 21:0.8471607161675081 22:0.05202363045083329 23:0.03803635203788654 24:0.0990429933835542 25:0.3506526233883563 26:0.39531611217207757 27:0.5858772750793834 28:0.6312270503164473 29:0.770488426241868 30:0.2857142857142857 31:0.25 31:0.25 
16.0 1:0.6879102687549384 2:0.050908929415255814 3:0.45388541607719146 4:0.5923222456438901 5:0.6145963510202527 6:0.6726107788357963 7:0.14063386623936044 8:0.3187988528502342 9:0.47363484672725126 10:0.6776263969033642 11:0.6355654949724385 12:0.10086303007685028 13:0.2907583418030409 14:0.6010797858839879 15:0.7910164780461727 16:0.7010818541842833 17:0.12827272153134406 18:0.4159514642800961 19:0.8232958384284699 20:0.6327214236868791 21:0.5893675073193725 22:0.008713719174112507 23:0.1355436556594743 24:0.43855912096617267 25:0.5709998468656015 26:0.6297115287968638 27:0.6013559090908468 28:0.25201403964189695 29:0.44058215589880123 30:0.14285714285714285 30:0.14285714285714285 32:0.0625 
2.4120452074613405 1:0.7619070856462391 2:0.03531230160281959 3:0.44487082149180557 4:0.5724846586788289 5:0.5421909794318582 6:0.7152194838203518 7:0.19428979889855547 8:0.4258735517854968 9:0.4515330389628815 10:0.5457203731292395 11:0.7072635505535058 12:0.05060307118443069 13:0.4671891844179368 14:0.45621332885811655 15:0.5624621996244016 16:0.7542019994248836 17:0.034610313572332504 18:0.19895383550080087 19:0.37557065740293155 20:0.5805378121689613 21:0.670073601232395 22:0.07346339046656031 23:0.2645118039100705 24:0.34179331011255853 25:0.4546689424357324 26:0.48577746507186625 27:0.6855302720723567 28:0.41080767703396853 29:0.6518526486378401 30:0.5 30:0.5 30:0.5 
16.0 1:0.6111364727324559 2:0.10956834279441793 3:0.3797187010810179 4:0.4385550331614195 5:0.5166659208992338 6:0.6448904493199907 7:0.34045531176878957 8:0.18222120882532697 9:0.18241459853792882 10:0.4372122732606493 11:0.6295983760446113 12:0.098933291176325 13:0.370584859287672 14:0.3868322513883428 15:0.590729557534266 16:0.5857882673587534 17:0.03217479513076883 18:0.4759099552679273 19:0.49896496054081807 20:0.4972028994632659 21:0.6602426569722009 22:0.11444349644832458 23:0.11033248399412442 24:0.3068596704407169 25:0.3967483002958934 26:0.3740074379334605 27:0.6442729517012583 28:0.5196337897191596 29:0.704928912501565 30:0.42857142857142855 31:0.125 32:0.125 
16.0 1:0.84190801639006 2:0.02917573403675227 3:0.27854150912318326 4:0.3960051423508136 5:0.6083610365334893 6:0.8066268734442366 7:0.03603585515638782 8:0.30370847064404627 9:0.35845911053204904 10:0.6000675618979849 11:0.78105524850012 12:0.014950108300582583 13:0.33372433879977426 14:0.3261985087298933 15:0.524734550465316 16:0.7458790507272144 17:0.026706514859776813 18:0.390596339859218 19:0.29901309756919764 20:0.4339498488245586 21:0.6497531353919285 22:0.04279305525778766 23:0.27546185580835 24:0.3950923947201404 25:0.4966855887741176 26:0.45502060508593806 27:0.6366686539217992 28:0.45987584948950877 29:0.6984805272362912 30:0.5 30:0.5 30:0.5 
16.0 1:0.7638516579830794 2:0.02205472422472006 3:0.1817179158891546 4:0.38443435480761196 5:0.6349763291856572 6:0.796677763057428 7:0.06319305829875704 8:0.22941579830766487 9:0.3983761973306006 10:0.6720912733821629 11:0.7595733287384387 12:0.00627975770410473 13:0.2690331745482296 14:0.41008740697156254 15:0.6697716195809506 16:0.8329814105346234 17:0.06529296815139214 18:0.09370748091667305 19:0.32728614891233787 20:0.569802196311605 21:0.8532044012807509 22:0.010390814948745218 23:0.11112249425534264 24:0.30727660690402814 25:0.5339674268183129 26:0.5921198110362849 27:0.5520893594552669 28:0.46919431031235026 29:0.6718640039657465 30:0.21428571428571427 31:0.25 31:0.25 
2.0981711072744784 1:0.5195293449080222 2:0.027115467641473115 3:0.7499735168367655 4:0.8246674178704292 5:0.5139457980043661 6:0.6265771443303898 7:0.09407443471056365 8:0.44639407209069276 9:0.7304371251424462 10:0.7400107771105178 11:0.6191323615223867 12:0.07451693577534867 13:0.5006764219648214 14:0.7449639273876618 15:0.7523535268753802 16:0.5613194256462767 17:0.04716159428572453 18:0.518248916484584 19:0.7069835711601615 20:0.598172143874652 21:0.5127770882534748 22:0.13964738671885224 23:0.43905079541903147 24:0.6985793521323044 25:0.6073267162465616 26:0.5884008443059601 27:0.6150956721005213 28:0.16480071410812083 29:0.4302618981054639 30:0.21428571428571427 31:0.125 32:0.0625 
16.0 1:0.743179394479144 2:0.021866165483787073 3:0.42614331703677355 4:0.3469754358318365 5:0.40900402894436766 6:0.7173362259940035 7:0.05752957092733407 8:0.47190463885732864 9:0.3291224391368778 10:0.4270882888852378 11:0.701626560743053 12:0.03118942804423458 13:0.41735591906984887 14:0.29287534473199744 15:0.422808446930874 16:0.7137854147509852 17:0.02573305288264609 18:0.5398387991164035 19:0.4779778357104833 20:0.4322252148661638 21:0.6306253087236537 22:0.0535883829956892 23:0.5071153500706193 24:0.4292373928550687 25:0.3617442557282084 26:0.4378329480349784 27:0.6149913406199369 28:0.5363532320461085 29:0.7160427240406558 30:0.5 31:0.25 31:0.25 
16.0 1:0.8119954523089272 2:0.021361205198885895 3:0.3390345494915227 4:0.41366379160192646 5:0.5719709682798038 6:0.764413789588142 7:0.1656191669774522 8:0.3111657636213534 9:0.39450595347920997 10:0.6298775618035278 11:0.7200196006299133 12:0.04399274083729035 13:0.47591155874124985 14:0.34576636521307613 15:0.4976421985196303 16:0.7904777927757975 17:0.015415140890491041 18:0.26144021372753057 19:0.15172163046759257 20:0.39620697566744695 21:0.6882343208414802 22:0.059096472743936514 23:0.1843864228815164 24:0.31006345189381346 25:0.44841685135857057 26:0.4185345260830233 27:0.6615306674951978 28:0.5317096947040484 29:0.7294133943145132 30:0.42857142857142855 31:0.125 32:0.0625 
6.673850595724073 1:0.2772306385231983 2:0.24158319828896826 3:0.7154350618293492 4:0.546576216999075 5:0.2847279301932644 6:0.28334988372468484 7:0.20488857892113763 8:0.6482327057023138 9:0.5007176098865206 10:0.40474468044921036 11:0.19301644704162316 12:0.4373991654937717 13:0.7422802142827419 14:0.27409593216313344 15:0.22661165931092458 16:0.36250493896437297 17:0.36202507000092 18:0.45522691424464384 19:0.6574011640721126 20:0.600455317349502 21:0.3160261655272254 22:0.19152806314370907 23:0.5665084632887839 24:0.2744549948348009 25:0.24138151532384536 26:0.22384159211981072 27:0.6434002057301326 28:0.5960302878573052 29:0.5411955364124055 30:0.21428571428571427 31:0.5 32:0.4375 
16.0 1:0.6947020698644105 2:0.033208138413331645 3:0.5481060620353999 4:0.39393003250144726 5:0.3971022531110058 6:0.7117242225288969 7:0.051822750302146975 8:0.41787090177790737 9:0.3693102057696036 10:0.5034585144834567 11:0.7766816526845058 12:0.04234786598803015 13:0.4163624376317946 14:0.34872591280921006 15:0.529073465392649 16:0.8556230986492814 17:0.019602679931109524 18:0.14268843358360797 19:0.13038725265079604 20:0.392017118864963 21:0.8200291218461292 22:0.00986283253474838 23:0.13623266304681517 24:0.1413209423637669 25:0.33473548897939837 26:0.34284852749020006 27:0.7072793733059233 28:0.5996227465769691 29:0.7479370900627645 30:0.2857142857142857 31:0.375 31:0.375 
16.0 1:0.685555689245164 2:0.0455383711093686 3:0.36659879691921293 4:0.4208647782159036 5:0.5510729259959073 6:0.6435446571045284 7:0.17252430709833547 8:0.4222854576030055 9:0.3656425356316959 10:0.5232412710567242 11:0.7227406849406074 12:0.07533031706310707 13:0.37961072987831884 14:0.3882696337246933 15:0.5981879642839906 16:0.6847564442503179 17:0.11590538580692573 18:0.3123806171852326 19:0.4953893076381845 20:0.580537658965228 21:0.5936513297227669 22:0.13511593142880385 23:0.34053812050852666 24:0.4713224395494393 25:0.5172417263606114 26:0.47472107749522585 27:0.5970169286972191 28:0.45115199052818783 29:0.6450947571162418 30:0.35714285714285715 30:0.35714285714285715 30:0.35714285714285715 
16.0 1:0.7695474272354592 2:0.027291239219136558 3:0.3216805219477782 4:0.45217132463513565 5:0.6076634309502318 6:0.7770426461611826 7:0.18098892150887783 8:0.1911578070239718 9:0.17461888520059116 10:0.5057724783651909 11:0.7451946796057389 12:0.12235743140607235 13:0.34959719893900926 14:0.40563599371348597 15:0.6100946141479053 16:0.7253134547320739 17:0.05466670398627295 18:0.45506316322822693 19:0.5284420754658424 20:0.5488846435158867 21:0.6859170841551188 22:0.0588135038877496 23:0.09627191335778716 24:0.3397106200326402 25:0.5172420381920186 26:0.371494622575133 27:0.7502377044275997 28:0.4633095511965709 29:0.7310705212542025 30:0.21428571428571427 30:0.21428571428571427 32:0.1875 
16.0 1:0.7177999204820197 2:0.019350627580851366 3:0.38452592176129446 4:0.54031050085249 5:0.6195619089203183 6:0.6948946834108372 7:0.09182473212462139 8:0.4917000703217021 9:0.5282237909515954 10:0.5928377014543712 11:0.6765659859731021 12:0.03915304026013698 13:0.36392857234982695 14:0.5251272380288803 15:0.7040760301223258 16:0.6508066821170913 17:0.21441056798685826 18:0.4640932671198851 19:0.6733498532284583 20:0.6181700882788576 21:0.5728134717199991 22:0.16171182579768906 23:0.4452164204058045 24:0.6324773452369546 25:0.5416888571363725 26:0.5709116494120011 27:0.7558369069297872 28:0.30222092427953756 29:0.5826145769328617 30:0.21428571428571427 31:0.25 31:0.25 
3.7648458271263507 1:0.42192058457607057 2:0.13397050808653796 3:0.6300812947723573 4:0.5958263225044977 5:0.3364065149533904 6:0.5332085901334499 7:0.14334318030304594 8:0.41132174600929006 9:0.4516206584214993 10:0.5597881106671383 11:0.4908429658453726 12:0.14951625068375052 13:0.5116960832762701 14:0.5217618367460363 15:0.5606460776708515 16:0.744322839941984 17:0.1239452571537842 18:0.021367612407905804 19:0.20169275452978008 20:0.465133502386255 21:0.7191070318217573 22:0.049165693589260956 23:0.07447049360758992 24:0.23267715622755172 25:0.4387896984874132 26:0.32676650919690414 27:0.639260052472175 28:0.49348457723271627 29:0.5399686739077594 30:0.35714285714285715 30:0.35714285714285715 32:0.0625 
16.0 1:0.4272135177364653 2:0.14066507990806448 3:0.7935524417860637 4:0.434827925766377 5:0.22702779502685289 6:0.44468741196675654 7:0.2709188664214586 8:0.5947123576473318 9:0.40375575951730774 10:0.39433031139155333 11:0.6534007353852745 12:0.08752985987532738 13:0.4720644291031796 14:0.37109897807645936 15:0.5330404598762446 16:0.6103173999524119 17:0.31151482811010023 18:0.36526514381399483 19:0.08939599236359706 20:0.27641573454070106 21:0.617946508219493 22:0.2521598761053806 23:0.3657790179851663 24:0.07043698536299647 25:0.15517485445797083 26:0.22233390290481447 27:0.6948748037828246 28:0.6822395704929815 29:0.8192260212564887 30:0.5 31:0.125 32:0.0625 
16.0 1:0.6795898465978553 2:0.03246053585064257 3:0.5385501975827104 4:0.491877580644226 5:0.46052813496402695 6:0.6428593186937914 7:0.02166753418127637 8:0.45093958738985684 9:0.48140419211292695 10:0.5516424605930873 11:0.6530739198678774 12:0.0217867266008762 13:0.5021794157454872 14:0.42546702932176256 15:0.5447411027988073 16:0.8754960363973632 17:0.027779583743834584 18:0.1250762576449302 19:0.1580087749964685 20:0.45733448700311485 21:0.8651666286755355 22:0.005755287854854647 23:0.030353269660305507 24:0.13115762588665802 25:0.3795090285231105 26:0.45582470600060293 27:0.8026267173343541 28:0.5605454933795957 29:0.8765455651558962 30:0.2857142857142857 31:0.125 31:0.125 
16.0 1:0.8080852100388616 2:0.025921657994702807 3:0.30850384978599577 4:0.4103064361259377 5:0.5779469919630624 6:0.8644582282659551 7:0.006319004574162207 8:0.2080164646041431 9:0.3174733763620294 10:0.6456670433101287 11:0.8474719935737737 12:0.016702504311356656 13:0.19918165526375625 14:0.35495825430278494 15:0.6643781215828807 16:0.8592505667231676 17:0.02923463213516091 18:0.15673076208167855 19:0.3699064484453125 20:0.6002203430508137 21:0.8085881431507302 22:0.006266145730202739 23:0.1323162247129136 24:0.33515705328378476 25:0.5007474890656259 26:0.48939591918785813 27:0.5864634201518755 28:0.46525200622858065 29:0.689816888995334 29:0.689816888995334 31:0.25 31:0.25 
16.0 1:0.6309345131647156 2:0.036167721089402506 3:0.5337165491848228 4:0.6520179390376499 5:0.606069117090258 6:0.5798153542258025 7:0.1304379659500022 8:0.4773873155560409 9:0.5217603782888913 10:0.5800411834799966 11:0.5368711574257509 12:0.12453683980168122 13:0.556405349529769 14:0.624266616539295 15:0.6580589434408035 16:0.5733582590371603 17:0.2317308001953166 18:0.5527555115618477 19:0.8486730070921807 20:0.6593868525311402 21:0.5296409916226668 22:0.09717853828331675 23:0.3955493275043087 24:0.6609790128502973 25:0.6091928090138857 26:0.6155392501758972 27:0.6935256986735437 28:0.26734236700892683 29:0.5472055390457483 30:0.35714285714285715 31:0.25 31:0.25 
16.0 1:0.7033943789342376 2:0.03225159196104188 3:0.46254051797287793 4:0.34836298861548787 5:0.42393830448020303 6:0.6739395459133366 7:0.04800954515770118 8:0.4344689256138608 9:0.3690625004623822 10:0.5068703101607475 11:0.6174274919201951 12:0.040312608159757034 13:0.3802619638665494 14:0.24852838423720688 15:0.4278005828735679 16:0.5945656430145473 17:0.04070345036821778 18:0.5972937651111494 19:0.45592529217880795 20:0.38104612783616404 21:0.572303920391104 22:0.062202598931931544 23:0.47698587639715695 24:0.2751069075177432 25:0.27435977555575775 26:0.3656648909438132 27:0.7137221404406591 28:0.6209498475456184 29:0.8225250535166625 30:0.35714285714285715 30:0.35714285714285715 32:0.0625 
16.0 1:0.624228625239033 2:0.04132188068077207 3:0.6133746795098781 4:0.40155720806699496 5:0.33333268656132226 6:0.6427113797014293 7:0.12773218283219803 8:0.5307851822568532 9:0.3812544020862951 10:0.43288794249111284 11:0.7268397466085377 12:0.021690059819932207 13:0.19966252476434904 14:0.11832684661812738 15:0.4497371642665639 16:0.6770113485416211 17:0.04345471222222956 18:0.5564655309095206 19:0.4783676272295282 20:0.4270264403747988 21:0.5964003825185747 22:0.07874075126029778 23:0.26847048507727844 24:0.15037636536589793 25:0.25872873175283523 26:0.336717258015881 27:0.7640270707596827 28:0.6485296308058615 29:0.8846317966432292 30:0.42857142857142855 30:0.42857142857142855 30:0.42857142857142855 
16.0 1:0.8405930381929289 2:0.014471039336492587 3:0.45071976980917855 4:0.3644446349132263 5:0.46970382362088847 6:0.8104532534945633 7:0.04994935480282376 8:0.18612344828423755 9:0.15052010644732028 10:0.5032426421218662 11:0.8356691615985689 12:0.019759539724133964 13:0.31893119624809935 14:0.38566886986595983 15:0.6083675013224115 16:0.7932320561381663 17:0.019270061496856 18:0.32461655200343204 19:0.21521211756570227 20:0.3754377910178196 21:0.7017353513780571 22:0.050737223799687814 23:0.38968616831897845 24:0.4827803684493878 25:0.4562942016397547 26:0.47381646396622745 27:0.6304264902034126 28:0.5541519671064477 29:0.7772574802841982 30:0.21428571428571427 30:0.21428571428571427 30:0.21428571428571427 
16.0 1:0.49403107031347887 2:0.010989322762493113 3:0.741949932408653 4:0.7027231517233318 5:0.3822857407391429 6:0.42623177315926375 7:0.05987989418200764 8:0.6553545020520107 9:0.6885408148929284 10:0.5175021278540644 11:0.3693251482329896 12:0.06385721797333613 13:0.7808804606231016 14:0.6730132019455742 15:0.4593500311593236 16:0.4243449879908465 17:0.08986042227487274 18:0.7340273801431935 19:0.48819923642594654 20:0.31533175063068253 21:0.32688890926234815 22:0.10557295951087646 23:0.7679229334397443 24:0.48751569856422583 25:0.2582199745570275 26:0.5041712734948234 27:0.7190232263637936 28:0.4193214887132638 29:0.6328342502667531 30:0.35714285714285715 30:0.35714285714285715 30:0.35714285714285715 
16.0 1:0.5538241052707684 2:0.11001178134919658 3:0.4644038112654413 4:0.5836881958996816 5:0.5944858631320437 6:0.5568324057754483 7:0.21845286759054847 8:0.24954966390017996 9:0.38486211444819474 10:0.5534679063491221 11:0.5138367075918014 12:0.10668015689400186 13:0.55010726868278 14:0.5815576275167792 15:0.5841695456494601 16:0.49287380760099603 17:0.12718834366011977 18:0.668962074685533 19:0.7351644481076375 20:0.547063595952551 21:0.35055719561123627 22:0.5440999838570313 23:0.5208130259923683 24:0.41795284998728893 25:0.2750299121323673 26:0.45642778168660136 27:0.66186929173429 28:0.3596763797527611 29:0.49705791470920696 30:0.5 31:0.25 32:0.0625 
16.0 1:0.7877984905071236 2:0.009434389550830813 3:0.4273427231268125 4:0.4410863009611778 5:0.5333331702492855 6:0.7543330924173303 7:0.028337481947828667 8:0.4070840805149032 9:0.330966358778454 10:0.5239480552847183 11:0.7748311483223502 12:0.038362582734715406 13:0.3891768565975019 14:0.3278708578810997 15:0.49873062118498607 16:0.8321995863156122 17:0.014526230758111325 18:0.17679636141145993 19:0.14027243769535408 20:0.4121828581227548 21:0.7368197205534678 22:0.026077394870400245 23:0.06897035710810963 24:0.16024362700426492 25:0.3983605628614106 26:0.48336516232787197 27:0.6176505364293247 28:0.5883096524680187 29:0.7840432781076024 30:0.2857142857142857 30:0.2857142857142857 30:0.2857142857142857 
16.0 1:0.47611503339095324 2:0.09676954570223022 3:0.6430485627939556 4:0.4785252142919625 5:0.36739794548996263 6:0.4558777568600113 7:0.44741278415778857 8:0.6263563968613224 9:0.4776616588995839 10:0.3752008693686136 11:0.3552709810657461 12:0.19727241858977793 13:0.4522686628479801 14:0.39301973519290584 15:0.465878945212996 16:0.357857776195983 17:0.9265135772193506 18:0.7594007784806533 19:0.4295293251358384 20:0.28191076792290987 21:0.516021580632859 22:0.10608174231333778 23:0.6078518154083175 24:0.6650522833190153 25:0.49959563188894157 26:0.34375314101919785 27:0.7637903680536473 28:0.4923140303423172 29:0.5978367034843831 30:0.2857142857142857 31:0.125 32:0.0625 
16.0 1:0.7833978540140246 2:0.04822536681769904 3:0.4208554987807678 4:0.30108009860913554 5:0.4100864215986644 6:0.7600449469553217 7:0.06798057688304264 8:0.31178412370755715 9:0.3249112875589178 10:0.5032411798458524 11:0.801141433388682 12:0.040984806130856165 13:0.24128382059657752 14:0.15751257886687434 15:0.47109468613314287 16:0.8018204062164623 17:0.05087847459874882 18:0.3804107780499146 19:0.3398616244714828 20:0.4500480466132328 21:0.6990169497172464 22:0.02986687972457996 23:0.22378220354964065 24:0.2075119371578057 25:0.3265265868140386 26:0.4051663483767211 27:0.7784788359681332 28:0.636026623501579 29:0.9036836825764695 30:0.21428571428571427 30:0.21428571428571427 32:0.0625 
5.107209528039602 1:0.5405385207621809 2:0.09981477997304761 3:0.707086581285641 4:0.4642319496628848 5:0.26666805205048144 6:0.5274868701609657 7:0.560019257656469 8:0.31829028342338395 9:0.17582541182869368 10:0.3633061118488186 11:0.5071956594952153 12:0.16429927381955634 13:0.6239764416095063 14:0.4168046888069345 15:0.46408291210385977 16:0.5401127938821503 17:0.2325121524848136 18:0.34432608385688657 19:0.2928545079700566 20:0.38821532832102423 21:0.6344428081541345 22:0.13596937274881116 23:0.4988749123960805 24:0.5600980096924167 25:0.4665303656831111 26:0.25168358629007925 27:0.8755603943204898 28:0.5461704793532141 29:0.7547497794133722 30:0.42857142857142855 30:0.42857142857142855 32:0.125 
16.0 1:0.5445274643705257 2:0.20259037164424776 3:0.6549284355951546 4:0.4021665810621504 5:0.25405876104007075 6:0.5289979553440969 7:0.23341543929656072 8:0.5637624002492446 9:0.40830926671759077 10:0.4050300705534822 11:0.5188328828040106 12:0.33032793868749266 13:0.3968003807695276 14:0.23533641443679454 15:0.38902823907798273 16:0.5184233681042061 17:0.14229053177468304 18:0.348680540759588 19:0.5322280116604143 20:0.5679780293740424 21:0.5458193010076358 22:0.21908074579631445 23:0.34347786340673847 24:0.2967497484599772 25:0.3199717118832293 26:0.31601165946326254 27:0.6867313883337557 28:0.5738319388945332 29:0.7153892091912192 30:0.2857142857142857 31:0.25 32:0.0625 
0.36600847884659576 1:0.6172851606288534 2:0.0967874695719677 3:0.6539256518625225 4:0.6942260642232255 5:0.5019659875057446 6:0.6012052220726709 7:0.12864251662695433 8:0.5519962356044061 9:0.6303142816269361 10:0.5876654866714762 11:0.5824422040253754 12:0.12074050182113001 13:0.6408512786130715 14:0.6396224297112824 15:0.6046956102427752 16:0.9029430203507617 17:0.021572998651909613 18:0.03423769318008366 19:0.3292428586508866 20:0.6140116637292162 21:0.8400478634966356 22:0.010627540898790687 23:0.03356129058775187 24:0.26490094701599265 25:0.5172426439708454 26:0.5345260830234191 27:0.801686463181948 28:0.3622558562234535 29:0.6282900895589372 30:0.21428571428571427 31:0.25 31:0.25 
16.0 1:0.6931102034618434 2:0.04248807345000311 3:0.4085342016083413 4:0.362351780149193 5:0.4833361883006746 6:0.6747503799957572 7:0.0822578196279651 8:0.36244910439702543 9:0.30310050779757797 10:0.515572799866 11:0.6234308809391396 12:0.07740584438822906 13:0.44252260698408064 14:0.306709368479858 15:0.46855247559628993 16:0.6326350698070428 17:0.14262972768210144 18:0.48842328609371827 19:0.3910829206460331 20:0.40905330694586783 21:0.6053121917983423 22:0.07029774406739966 23:0.39826871758560894 24:0.5203032094088048 25:0.5183195886832949 26:0.38224947230877443 27:0.744518174015244 28:0.5432845543364434 29:0.7446147179865195 30:0.35714285714285715 30:0.35714285714285715 30:0.35714285714285715 
16.0 1:0.5969453284772993 2:0.08779539148914663 3:0.44754463128249655 4:0.6392492802276603 5:0.5925516964994617 6:0.6791648181497427 7:0.13636115003680302 8:0.412039212610093 9:0.4860290200663996 10:0.643648814794519 11:0.629605028766473 12:0.05151153061048304 13:0.28325316012970836 14:0.4697590799022359 15:0.6726254430635423 16:0.5719304429213525 17:0.3384783819102081 18:0.38516360562031376 19:0.7665628773599852 20:0.7212737537942765 21:0.7895294225136018 22:0.03876934475515588 23:0.020059017696629607 24:0.4120149851932303 25:0.5862073025443595 26:0.5877977686199616 27:0.5985362299338415 28:0.32011658927521647 29:0.5461877201109567 30:0.14285714285714285 31:0.125 31:0.125 
16.0 1:0.5457380822220766 2:0.046662044916764206 3:0.5604387674599023 4:0.6395715534219246 5:0.5203849333946055 6:0.4859181724573643 7:0.1529495093364284 8:0.6571484795058372 9:0.6475430580247196 10:0.49978225260114423 11:0.4793684194236421 12:0.07030852489897 13:0.7238580638506048 14:0.6029014918650828 15:0.4743557661201124 16:0.5700928904014021 17:0.11886888253275406 18:0.464827961461681 19:0.344650105209992 20:0.3832758286206161 21:0.4409048017493765 22:0.08669036219720071 23:0.3909118698527041 24:0.35941864135551166 25:0.3702013841063689 26:0.4063724997487182 27:0.7705708120633366 28:0.45279854068781694 29:0.6704027285259699 30:0.42857142857142855 31:0.125 32:0.125 
16.0 1:0.5707310385545388 2:0.06297371682683045 3:0.6404812196298978 4:0.5864375788052565 5:0.4572086421051475 6:0.6412880126281001 7:0.1169032975353045 8:0.5299367776684754 9:0.5156001202840015 10:0.5454536870010002 11:0.6099115349698795 12:0.1676284211667125 13:0.5412622591937122 14:0.5200200320591124 15:0.5741318294096387 16:0.6629653093299747 17:0.11091060598313811 18:0.3658768799314134 19:0.34706240876854433 20:0.4628570524226289 21:0.7341602029457358 22:0.026961438479375936 23:0.14713551853409115 24:0.316749400734324 25:0.48275817649524894 26:0.46879083324957305 27:0.8038475944609879 28:0.45660074688024754 29:0.6652202745878587 30:0.5 31:0.25 31:0.25 
16.0 1:0.5773778345815586 2:0.07276699072308211 3:0.5986770940253066 4:0.5632999459244495 5:0.433602984457778 6:0.559362673055072 7:0.06034338023182084 8:0.500808037835065 9:0.539576265741282 10:0.5344089112733041 11:0.5087120286095692 12:0.059285094024113624 13:0.4738409747458467 14:0.5463562293550015 15:0.570337992036397 16:0.7098515444042839 17:0.06373690281169014 18:0.3281306148346647 19:0.32924413600769176 20:0.4724862058519967 21:0.7062662787664371 22:0.024298615245815204 23:0.16075521161973608 24:0.2630943230158895 25:0.4155814400326303 26:0.5580460347773644 27:0.623957502875426 28:0.49038061993771187 29:0.6687516902339636 30:0.2857142857142857 31:0.125 31:0.125 
16.0 1:0.730450237336856 2:0.03732013465838419 3:0.38437998422039765 4:0.5143278175660915 5:0.6166689951113759 6:0.693152610111786 7:0.07166352049803659 8:0.35166954360572816 9:0.45056356706298895 10:0.6220027396296715 11:0.6616098743801092 12:0.12637537987662859 13:0.4507538071947922 14:0.45981221882514733 15:0.5540234589150375 16:0.6424414902453361 17:0.6429825453988756 18:0.4531895983808501 19:0.2892616586170576 20:0.2960120040990155 21:0.6735971395793032 22:0.0797574601191617 23:0.14118721056795155 24:0.34685913469685925 25:0.5344818108973024 26:0.48999899487385673 27:0.38147212461506474 28:0.4269769899689631 29:0.6052049819344762 30:0.42857142857142855 31:0.5 32:0.125 
3.6637896643322163 1:0.5663573674456093 2:0.039045149610566855 3:0.47556097923908447 4:0.5818837193350784 5:0.5576071000087659 6:0.6073418225042152 7:0.09728785831058334 8:0.4043361234894307 9:0.4435175206600895 10:0.5783050501520548 11:0.6591149803988439 12:0.05491651617110075 13:0.3191144277963711 14:0.370867676090713 15:0.6069279763163167 16:0.6236748803653828 17:0.14836105477194733 18:0.45414894482927987 19:0.6147679455224734 20:0.5780569361925584 21:0.6208260885124092 22:0.07691230607991044 23:0.3889053517583759 24:0.4233698367276032 25:0.4398570954550063 26:0.4818574731128754 27:0.7917096950955834 28:0.4275652775270911 29:0.6657474499982453 30:0.21428571428571427 30:0.21428571428571427 30:0.21428571428571427 
16.0 1:0.7149126592793418 2:0.04010134966767154 3:0.49838672918579624 4:0.4973660852434395 5:0.5500042814569505 6:0.7919775141539803 7:0.031153053889452158 8:0.2500763409987127 9:0.2968575256674277 10:0.5595197426596124 11:0.8146287154696025 12:0.012108711852629114 13:0.2703765410566784 14:0.25188497992675923 15:0.5447734675732137 16:0.7762634534965297 17:0.12241136853479499 18:0.3551055451981444 19:0.7641371789449629 20:0.7152946011774295 21:0.6789930667054387 22:0.11066418973680993 23:0.39925784974268425 24:0.6968431280225108 25:0.622910321291212 26:0.6855965423660665 27:0.5731163968661301 28:0.3888831340260122 29:0.570566157977061 30:0.2857142857142857 31:0.125 31:0.125 
8.999762664982255 1:0.19686970270514967 2:0.10513753179684919 3:0.900166765967751 4:0.3700770633391505 5:0.01401151501852501 6:0.17923461938878626 7:0.12199670498040098 8:0.8013486587806445 9:0.33938220007598685 10:0.19368096424155204 11:0.09989817521638104 12:0.7956171658001184 13:0.9101594046847146 14:0.09401768862371122 14:0.09401768862371122 16:0.2131765725826745 17:0.9256315450645296 18:0.9011058063355718 19:0.13983613278761078 20:0.04495281241307866 21:0.5363521904107197 22:0.1174453225122909 23:0.48321842218861494 24:0.4748743664609697 25:0.4280706946660457 26:0.055482963111870454 27:0.911266946595258 28:0.8742303844837691 29:0.9452255108248594 30:0.42857142857142855 31:0.5 32:0.3125 
16.0 1:0.35221140632776277 2:0.23327886987472016 3:0.7810770939899938 4:0.41596247346763027 5:0.15240876876059034 6:0.4597095058353224 7:0.2834363247878811 8:0.6457837379216811 9:0.3923208049858565 10:0.3505334713624672 11:0.5407577581278415 12:0.2458219540501904 13:0.4186614614422654 14:0.07462719787857874 15:0.28150727785243473 16:0.5535188386746243 17:0.08225964429366862 18:0.5836128698546202 19:0.5195642709716505 20:0.43779760009142366 21:0.4285033384855989 22:0.09950478805292667 23:0.6125900763577359 24:0.515814166341344 25:0.37097792007036734 26:0.20449291386068952 27:0.916291588483023 28:0.5119532418029555 29:0.5795839525572649 30:0.35714285714285715 31:0.5 32:0.125 
16.0 1:0.7158169494827814 2:0.029998583825194804 3:0.2956591356937601 4:0.41752407703763783 5:0.601834975180427 6:0.7446222643818192 7:0.05676521944740001 8:0.3103168519951108 9:0.36996666294077174 10:0.6135478917755859 11:0.7032923166689895 12:0.07592251238327173 13:0.20314221912055114 14:0.25028668830699025 15:0.5468950878638571 16:0.7319847781869624 17:0.18640804551916115 18:0.38807736411891924 19:0.4555268789283804 20:0.5210302353260158 21:0.7547141877111858 22:0.03304909344038131 23:0.1564551345708542 24:0.3284654418316287 25:0.48275974021404555 26:0.4931148859181826 27:0.7360235677411032 28:0.5195146281262765 29:0.7611941055801942 30:0.35714285714285715 30:0.35714285714285715 30:0.35714285714285715 
8.71844304950076 1:0.5754777107617964 2:0.13441384394150263 3:0.5899148589361582 4:0.48106682727383504 5:0.4000008856706593 6:0.6327562509102214 7:0.17505754098921839 8:0.4566494595579286 9:0.5051575852645942 10:0.5735936899872618 11:0.6994970850813409 12:0.1613694180328156 13:0.1861794803560165 14:0.26282137898725716 15:0.5232714651199446 16:0.6629796550248557 17:0.050050694136620125 18:0.5223713084649046 19:0.6301558323970001 20:0.5697465332506727 21:0.5994989636452717 22:0.17538414304119768 23:0.27537243765641367 24:0.2943520754612056 25:0.36721877613792986 26:0.4406473012363052 27:0.6097831348103293 28:0.43262037745674364 29:0.5965743238683685 30:0.5 31:0.125 31:0.125 
16.0 1:0.7428600638622754 2:0.017192138104895772 3:0.4621020145952281 4:0.5060159299568826 5:0.5510014413819636 6:0.7558602553814622 7:0.017166346313558588 8:0.4018537581045874 9:0.39216469683013255 10:0.5579951069029445 11:0.7446425889604987 12:0.04040067860353302 13:0.4286679924774742 14:0.47881278572954633 15:0.6083655363413151 16:0.8360424438911622 17:0.02764344349211166 18:0.19244794058131784 19:0.22187982795413494 20:0.48208690780554325 21:0.7975839225588512 22:0.02580303400170744 23:0.09060852367623351 24:0.2649021035154394 25:0.4780453482763588 26:0.4743190270378933 27:0.8223073090215267 28:0.49197235992990374 29:0.7646001965618408 30:0.21428571428571427 30:0.21428571428571427 30:0.21428571428571427 
16.0 1:0.833526732223839 2:0.01071099047185737 3:0.29075474484949265 4:0.3157131887144344 5:0.4869292846583691 6:0.8148437220650588 7:0.016472494661397847 8:0.32841038148671475 9:0.3385984602156116 10:0.5596819584607943 11:0.8200247603534033 12:0.03534300912379877 13:0.31394546456886535 14:0.3105099839161159 15:0.5361034203273868 16:0.7998948473969848 17:0.03965491226054332 18:0.33586548220248497 19:0.4661223510548634 20:0.5261054434191177 21:0.6883171715167427 22:0.04642793521029025 23:0.38531632502632995 24:0.48266337166031886 25:0.45962647196935436 26:0.6113177203739072 27:0.45945084367424055 28:0.4685271019719808 29:0.6405774879356028 30:0.2857142857142857 30:0.2857142857142857 30:0.2857142857142857 
16.0 1:0.5191315579525797 2:0.03862040965277132 3:0.6928246615569436 4:0.483025854543015 5:0.3423237786231332 6:0.5028162373552268 7:0.08941969568901217 8:0.6323114524487551 9:0.4945275053209691 10:0.4469581056973674 11:0.4735136199625713 12:0.08382116285491724 13:0.5934350877468882 14:0.5382488036098364 15:0.5312127923831592 16:0.5165604878704695 17:0.09699337276435314 18:0.4826898790273729 19:0.237236651365143 20:0.310835135426299 21:0.4880161820312541 22:0.1822625071205845 23:0.4433582980564633 24:0.23267765645492677 25:0.2619272519807823 26:0.3618454115991554 27:0.7120372124745825 28:0.6029786443484931 29:0.8124361643346222 30:0.35714285714285715 30:0.35714285714285715 30:0.35714285714285715 
10.41596162473802 1:0.7021972879204565 2:0.031234170476659655 3:0.5177378382826779 4:0.6941675767390536 5:0.6373662610725901 6:0.7481456457009931 7:0.07701770516145176 8:0.4493562899018962 9:0.6336037622418339 10:0.6909495392470313 11:0.7241531785354369 12:0.01073535876798733 13:0.4873987565577356 14:0.6090441385382045 15:0.7058805039979759 16:0.7825144307539752 17:0.047536835359798246 18:0.16398124014876764 19:0.41592586379814517 20:0.6307456017525118 21:0.7333676460124141 22:0.024232535351691547 23:0.1579215355073577 24:0.4094300363482124 25:0.5689654530016722 26:0.5239722585184439 27:0.7748279288208405 28:0.2972392387116975 29:0.6293870609133642 30:0.6428571428571429 30:0.6428571428571429 30:0.6428571428571429 
16.0 1:0.6993943483435217 2:0.046204426457734885 3:0.3671709656480263 4:0.3584608949084881 5:0.4979398607085123 6:0.6725068453307578 7:0.028907819997041048 8:0.39814411310123693 9:0.3614265110509394 10:0.4949649367206395 11:0.7577740162072074 12:0.03902090509808669 13:0.19718168532164107 14:0.22109747232439947 15:0.5424271873259665 16:0.7042556378364568 17:0.1994668562116494 18:0.25680182129101303 19:0.2308054891914856 20:0.33930805061796243 21:0.592474920306324 22:0.049450850572764014 23:0.4606096978765812 24:0.40896159260187426 25:0.35341634447069553 26:0.4384360237209767 27:0.5337056672020142 28:0.582649933385815 29:0.6998372808911142 30:0.35714285714285715 31:0.125 32:0.0625 
16.0 1:0.6190344869712151 2:0.09173493798592756 3:0.38458926604972804 4:0.48530428892110844 5:0.5721066231704217 6:0.566004794481036 7:0.2628893940242869 8:0.338054483955042 9:0.4823608351915771 10:0.6526216546829898 11:0.5564859164845449 12:0.2020273062627199 13:0.39313693409712774 14:0.4210052287895531 15:0.6242731614506589 16:0.8290580966828845 17:0.03479264441407657 18:0.06313592915082404 19:0.3380274530519518 20:0.630113867369064 21:0.8642218956911151 22:0.013994376032799972 23:0.059979982525635425 24:0.3386468171930012 25:0.5576541666698135 26:0.6173484772338927 27:0.6493003569159963 28:0.4345659289920126 29:0.632379631241052 30:0.21428571428571427 30:0.21428571428571427 30:0.21428571428571427 
16.0 1:0.26122214235768193 2:0.19305343118724705 3:0.6028804934273463 4:0.306941466895882 5:0.1658567793677458 6:0.3019125029238607 7:0.10104800959164155 8:0.5409455041512371 9:0.3843642997572737 10:0.3560021685586044 11:0.27484254317785956 12:0.3341502472634634 13:0.6543477634768009 14:0.34986917671512596 15:0.34050198306740576 16:0.31858407432868074 17:0.22851591593842466 18:0.7450094937975117 19:0.4543651259135632 20:0.2960093383725918 21:0.5044405757980582 22:0.17470031722037846 23:0.5484830837276745 24:0.6022929853986192 25:0.45499388037909966 26:0.26856970549804005 27:0.5085476497160585 28:0.6190753530932602 29:0.46633815029928594 30:0.5714285714285714 31:0.125 32:0.4375 
16.0 1:0.10205432455806719 2:0.10868088246606467 3:0.7902518594577457 4:0.7431056173854227 5:0.2274913355401833 6:0.16255132545007592 7:0.18634003610266286 8:0.707758856730033 9:0.6972497528491107 10:0.3977914568383319 11:0.26436380022927514 12:0.1359387344638415 13:0.5931433734619052 14:0.6278451455538905 15:0.5608797428321894 16:0.519030155512131 17:0.2817987235087875 18:0.30989293609362917 19:0.17303249659430595 20:0.3022688116839595 21:0.559205899606814 22:0.2196192951694867 23:0.10982168839783067 24:0.2114679471268861 25:0.32758528816654214 26:0.3929038094280831 27:0.5411940593784762 28:0.5331558921772207 29:0.39944014884714 30:0.07142857142857142 31:0.375 32:0.5625 
4.703381354422559 1:0.2918003473139284 2:0.1796399485489336 3:0.6410695778952431 4:0.8577924213375204 5:0.5006837871595501 6:0.26633944852701813 7:0.43350460083150705 8:0.5928638929916817 9:0.8634147590540363 10:0.6285708253930737 11:0.12909533826148778 12:0.19496445207457289 13:0.6107357576191157 14:0.8090612973888701 15:0.6242720165650528 16:0.771189189757124 17:0.0881843029455027 18:0.030171725671232354 19:0.2886697793210142 20:0.5303239978611943 21:0.8139841837584351 22:0.03006602831518012 23:0.027168056170291967 24:0.28074775116985434 25:0.5000003819451281 26:0.47931952960096486 27:0.5930656973980097 28:0.3167404332089993 29:0.5203180709540495 30:0.42857142857142855 31:0.125 32:0.125 
9.692042803197229 1:0.5011649462877087 2:0.028205939862598974 3:0.563316421403769 4:0.7081573334302759 5:0.5636131163839726 6:0.4641115002010147 7:0.12776025065401975 8:0.6101808739099231 9:0.7244642762685667 10:0.5596821314608958 11:0.42680697419660735 12:0.1407645508529921 13:0.6647971100820046 14:0.6451898502913908 15:0.5456985321895353 16:0.7806789471540199 17:0.035036454509818515 18:0.220112731142828 19:0.3125912659229754 20:0.5191411374830704 21:0.794231401804167 22:0.0065324806057104 23:0.08986865086389703 24:0.22281922462713913 25:0.4414460397358453 26:0.5004523067644986 27:0.6494525284318662 28:0.4274808732106236 29:0.6390203162950905 30:0.5714285714285714 30:0.5714285714285714 30:0.5714285714285714 
16.0 1:0.5873101858246585 2:0.09042543705762099 3:0.4749061054142512 4:0.3338330837523487 5:0.40000057156985297 6:0.5657752884160091 7:0.40359394066870896 8:0.444272303975892 9:0.22390465807630477 10:0.38705128894364127 11:0.48470883719186997 12:0.2537404396312374 13:0.48224884232023396 14:0.3632327955456543 15:0.4567883819245274 16:0.44599526059176337 17:0.48119897993306987 18:0.6325549110061169 19:0.40097961320851927 20:0.3481342622106568 21:0.6584288977952283 22:0.0663369529208005 23:0.32346610206872595 24:0.43665747130971516 25:0.5078254365599684 26:0.2858578751633329 27:0.7624494607701127 28:0.5542970335924464 29:0.6492406187892668 30:0.35714285714285715 31:0.625 32:0.125 
16.0 1:0.9588402363540957 2:0.0025252050074269184 3:0.13793356754149114 4:0.18811129035144597 5:0.5166663644354896 6:0.9299664582621597 7:0.012237335826973365 8:0.1549377247112691 9:0.09594517155143047 10:0.4872042231976477 11:0.9188617869137156 12:0.011454144533949802 13:0.13336980666776124 14:0.1553515006194547 15:0.5288369254017502 16:0.8797664126788572 17:0.02326200661876723 18:0.18423922716987337 19:0.18519347110461332 20:0.39994943825321405 21:0.8954439848313874 22:0.011689645415935446 23:0.019298967531164953 24:0.14759844112680567 25:0.41713892878496694 26:0.5260830234194389 27:0.4204998504255799 28:0.702167425033805 29:0.8823023815237876 30:0.07142857142857142 30:0.07142857142857142 30:0.07142857142857142 
12.4411584100145 1:0.6928668626179075 2:0.09645182274109804 3:0.490885161799178 4:0.34319518939337024 5:0.38611314994273344 6:0.6565946768426253 7:0.23036998062244823 8:0.4606033018688466 9:0.33739791758898324 10:0.47509991418361774 11:0.6218335632273096 12:0.13964439558229497 13:0.37615568128890836 14:0.2197176573959329 15:0.43339531500026185 16:0.614299686846383 17:0.20949615178062886 18:0.42906574716680806 19:0.29070521907871527 20:0.36585588512514855 21:0.5667714205511779 22:0.06764846850259942 23:0.29871157105348833 24:0.43032143004176887 25:0.47248612104241583 26:0.3691828324454719 27:0.5955653905529701 28:0.5889880704705919 29:0.7512878758281193 30:0.5714285714285714 30:0.5714285714285714 32:0.0625 
16.0 1:0.8000738754889369 2:0.009772347890851745 3:0.39435221084110506 4:0.5181982015116515 5:0.5513325685710827 6:0.8117034537892447 7:0.03611018491233589 8:0.2715048981688171 9:0.32006464567892756 10:0.6138368527300647 11:0.785625091106349 12:0.014326399206603786 13:0.4332536623467999 14:0.4451347876513373 15:0.5453397674617869 16:0.7714909502250221 17:0.034225794869175 18:0.3017076311031419 19:0.4427870381468901 20:0.5654482076677194 21:0.6867762689312318 22:0.08925281725521662 23:0.4976058661747164 24:0.6099488829541159 25:0.4674138297075281 26:0.6243843602372096 27:0.5802943052211914 28:0.4038303283008875 29:0.6836105274747589 30:0.35714285714285715 30:0.35714285714285715 30:0.35714285714285715 
16.0 1:0.6223189558989957 2:0.17891887160301467 3:0.4867471663330315 4:0.2537984791178179 5:0.3209169086314663 6:0.7038654787681186 7:0.20686637521383822 8:0.27209074486258494 9:0.2464631293690996 10:0.5032409502227712 11:0.6542413886555224 12:0.20426117983465325 13:0.3290104195844192 14:0.28685482327195333 15:0.4811148544837995 16:0.6346610895793888 17:0.2763076564055816 18:0.46925380606788936 19:0.3327915334167414 20:0.37969494051527297 21:0.8612603847409126 22:0.0086950043018191 23:0.15959627952180988 24:0.32615309226116784 25:0.49854676346157545 26:0.3497838978791835 27:0.5745516478561183 28:0.5669884858917936 29:0.6658377649386388 30:0.5714285714285714 31:0.25 31:0.25 
16.0 1:0.5805641108126721 2:0.11696986532083367 3:0.5842610291725352 4:0.3084337915369998 5:0.2833339513584266 6:0.5728214398747071 7:0.3774533255435956 8:0.4519895880118431 9:0.17351816784806567 10:0.3343907838736391 11:0.5008818073402485 12:0.1762408234102877 13:0.5289046512334709 14:0.33304413946377 15:0.4015836150168958 16:0.47194010626409233 17:0.6356919422441928 18:0.6276550102105816 19:0.2494756118795526 20:0.19972598682019968 21:0.885696724044787 22:0.015347284616649895 23:0.17535650366151012 24:0.36079144033233024 25:0.5492257360696182 26:0.2926927329379835 27:0.7415945897833915 28:0.6360439712434125 29:0.7862884669343229 30:0.21428571428571427 31:0.25 31:0.25 
16.0 1:0.8680728709801908 2:0.013373800563250807 3:0.28559373053266274 4:0.32890650593553766 5:0.5417204585576372 6:0.8271936917922017 7:0.02613616641750206 8:0.2797553412860167 9:0.30697914066479637 10:0.5831446050941793 11:0.847933827867134 12:0.029239873260820257 13:0.22964574069795163 14:0.32787088359612265 15:0.6229606732540617 16:0.81875363246741 17:0.01466312368551452 18:0.2552956684976374 19:0.3428850585176153 20:0.5295572894745946 21:0.7644500915352699 22:0.03282311881569981 23:0.19048284542026603 24:0.29607303211571406 25:0.449049207361141 26:0.5350286460950848 27:0.45243433850785214 28:0.5141249914136682 29:0.6555423691232474 30:0.35714285714285715 30:0.35714285714285715 32:0.0625 
16.0 1:0.9305621723821401 2:0.0023785711454182186 3:0.044017113784880144 4:0.2724579397198484 5:0.6333423277024237 6:0.8970653017382607 7:0.03721051869088662 8:0.10213031097331501 9:0.2798908448710354 10:0.6580220954239039 11:0.8995447146374501 12:0.02899472794117285 13:0.08171107954428393 14:0.257511069285614 15:0.6508353597870759 16:0.8746947470969134 17:0.009675028507780462 18:0.0048976772595535996 19:0.2219419312503667 20:0.5276709499321746 21:0.8232671633871113 22:0.03367435082879624 23:0.07756699238402616 24:0.3098702257971945 25:0.551726017493852 26:0.63282741984119 27:0.43565142183866584 28:0.5371682486395899 29:0.7265334639686508 30:0.21428571428571427 30:0.21428571428571427 30:0.21428571428571427 
12.733807545353086 1:0.8322730224959025 2:0.05320005158092012 3:0.352733945206197 4:0.1551435164825895 5:0.3364069215119229 6:0.8181586088527698 7:0.03509882071972914 8:0.17882514746054062 9:0.09960995323220388 10:0.4519566818228865 11:0.8420718109319526 12:0.0621886876047325 13:0.2087776264664505 14:0.15337561794982876 15:0.449301762111015 16:0.8051266740580912 17:0.030839494994328576 18:0.18162391814032713 19:0.12120346703197483 20:0.37969131258922684 21:0.7753564110607386 22:0.01757944374213207 23:0.23870780770999234 24:0.14832608141378745 25:0.31509632992362413 26:0.4297919388883303 27:0.19735833704282169 28:0.5095281922752672 29:0.25060823053243503 30:0.21428571428571427 30:0.21428571428571427 30:0.21428571428571427 
16.0 1:0.8929415930759655 2:0.012918270514654311 3:0.19643367989987146 4:0.14113108531560545 5:0.4543202495745063 6:0.8873339988258068 7:0.0175099739646823 8:0.14458867403979747 9:0.1724183507437808 10:0.5454517489682746 11:0.8886079523377928 12:0.03665274678410705 13:0.19538491457885881 14:0.10686785085496683 15:0.4513349214440236 16:0.8572887669991378 17:0.041131559804631686 18:0.240658014998849 19:0.19518696142399217 20:0.4427524958765014 21:0.7866042639082762 22:0.03865078776547251 23:0.1557278194932214 24:0.15768448760635362 25:0.3447580564315099 26:0.4870841290581966 27:0.4087576637189669 28:0.7064806595404557 29:0.8032306364514092 30:0.21428571428571427 30:0.21428571428571427 30:0.21428571428571427 
16.0 1:0.9408426124420992 2:0.016015087300191334 3:0.046774861507083675 4:0.17281858360580324 5:0.5078635012280482 6:0.9219581792258531 7:0.021543389816079058 8:0.04222999258998347 9:0.15402350677329607 10:0.5735963333975829 11:0.9079908244872695 12:0.02648698630047473 13:0.14842338574378455 14:0.11866499776800851 15:0.4887103870939114 16:0.8687188778629776 17:0.02943574212258261 18:0.06179722506925582 19:0.23871895416417024 20:0.530323891007171 21:0.8571928793193435 22:0.02291708451505219 23:0.040893524442658785 24:0.20027495451154198 25:0.4456504484933553 26:0.44305960398029953 27:0.5036713672379399 28:0.6531784434177013 29:0.8227173533054483 30:0.14285714285714285 31:0.125 31:0.125 
16.0 1:0.893790452497289 2:0.013278783513536317 3:0.15273021485164134 4:0.21879061513339146 5:0.5218695561501983 6:0.8618165266520728 7:0.028297938036691894 8:0.12434758013769638 9:0.1676330767663954 10:0.559523219179759 11:0.8334318474631269 12:0.05311267741687035 13:0.15396867545484672 14:0.15541733905874952 15:0.5371402249255125 16:0.8379047725363797 17:0.0639316548192146 18:0.18551241794109044 19:0.17449489303412688 20:0.44928490322768483 21:0.8204767551224215 22:0.04087280199621719 23:0.0223166580459504 24:0.19748297385807378 25:0.43103370457492707 26:0.48306362448487283 27:0.4896379503362071 28:0.657692206834572 29:0.7951550600974833 30:0.07142857142857142 31:0.25 31:0.25 
16.0 1:0.762239034746798 2:0.04709919534824988 3:0.3696644261111694 4:0.36375484392115365 5:0.4814009338192407 6:0.7927390824058779 7:0.18774343093846985 8:0.07647405150166203 9:0.2089183009050073 10:0.5463091474260808 11:0.8314599916041708 12:0.05411469908969951 13:0.2506649950392118 14:0.36999450639463527 15:0.6242722543059791 16:0.8260052507918739 17:0.07421775553636964 18:0.047501336442148476 19:0.281359783298276 20:0.5477961602229274 21:0.7334028786655903 22:0.03056453114266765 23:0.27688414196144395 24:0.41608372693339624 25:0.5335614977532137 26:0.44909036084028525 27:0.5107429077302206 28:0.49740048208138665 29:0.6642389875390803 30:0.42857142857142855 31:0.125 31:0.125 
2.6145433153361113 1:0.4982620847356307 2:0.1605187976854318 3:0.5408338737796015 4:0.1627871945111909 5:0.19235489645442883 6:0.5672448716956678 7:0.22377464321247717 8:0.3498384961393058 9:0.09542110175081098 10:0.3266640413951889 11:0.4949174869361707 12:0.1940575405549603 13:0.34938983195360446 14:0.1180056136378832 15:0.33415339903411123 16:0.5795286509435322 17:0.34655334346478045 18:0.5210715458625251 18:0.5210715458625251 20:0.1387425267698584 21:0.8692342055456408 22:0.03141595424910307 23:0.11484586823841403 24:0.0991157900520116 25:0.36933346217361807 26:0.25610614132073567 27:0.3719020260271075 28:0.8662489013077765 29:0.9613152696687367 30:0.42857142857142855 31:0.375 31:0.375 
16.0 1:0.7599206224498498 2:0.012118567718078671 3:0.46397952145015986 4:0.3722284563984694 5:0.4105095037746595 6:0.7215379197001592 7:0.07593975716145236 8:0.4417005813572854 9:0.3251649239114376 10:0.41050595399616735 11:0.66623283263516 12:0.04210034214179824 13:0.5751598651659658 14:0.3307663551303854 15:0.3538103341091987 16:0.6502113067838403 17:0.05722680076087148 18:0.6960630152815923 19:0.5620127996279614 20:0.37058735551675276 21:0.5258113580644252 22:0.016829487856569906 23:0.7061765152647477 24:0.523309419009679 25:0.30981836098649457 26:0.5841793145039701 27:0.47228043658224095 28:0.5160627639285553 29:0.7102909815458186 30:0.2857142857142857 30:0.2857142857142857 30:0.2857142857142857 
2.468866079767102 1:0.9608444144767636 2:0.0036037133449551015 3:0.03999529685741154 4:0.2986329585010568 5:0.7079396778697533 6:0.9269373114827838 7:0.021905572911238663 8:0.11196235026274413 9:0.2927238894978731 10:0.6581662660707218 11:0.9149331969939628 12:0.007240731247652309 13:0.16021021404837982 14:0.32596535784690633 15:0.6594090768278009 16:0.8674477674734625 17:0.029095750469071677 18:0.18946000154036838 19:0.3497195253410304 20:0.5987296408937556 21:0.8526845185002142 22:0.0030509751241513863 23:0.13346142454788668 24:0.3086813935774421 25:0.5282150627412516 26:0.5927228867222836 27:0.46778910666208284 28:0.47948896839016675 29:0.7149457526862342 30:0.07142857142857142 30:0.07142857142857142 30:0.07142857142857142 
16.0 1:0.7944066966181028 2:0.015005497421215595 3:0.022310650138758707 4:0.18320011585567442 5:0.5993281536264793 6:0.7720561126748392 7:0.11931417581868005 8:0.19530115103840553 9:0.2799383487232955 10:0.5705821201269842 11:0.7323712770827803 12:0.03384384831545684 13:0.1339484736251207 14:0.28604528648171107 15:0.607433961384724 16:0.6996924749109253 17:0.04973441056265148 18:0.042618194095593934 19:0.20364954681946998 20:0.5108229859624448 21:0.822295055192003 22:0.02640964688441585 23:0.20366304310723943 24:0.3124618189523339 25:0.4985774750191844 26:0.6317217810835257 27:0.3274308726378024 28:0.5602058277985603 29:0.664114677649235 30:0.2857142857142857 30:0.2857142857142857 30:0.2857142857142857 
16.0 1:0.8937190674252595 2:0.021918689510086495 3:0.1902351592909325 4:0.22224780680758432 5:0.5105334254347326 6:0.8667440467329406 7:0.012513653552932495 8:0.21076386258740007 9:0.2945506744355115 10:0.607820722536376 11:0.8586623978028629 12:0.02198853353536277 13:0.23406287914295287 14:0.26687531803662534 15:0.5606460549917711 16:0.8519443222995173 17:0.03403365940288776 18:0.24074241343586467 19:0.35725478285163337 20:0.5827749121296113 21:0.7727623663937889 22:0.04526928900000997 23:0.18248712804909858 24:0.32595508447790944 25:0.4827590399131053 26:0.511006131269474 27:0.5055422443281513 28:0.5407692782422574 29:0.7462642341166196 30:0.35714285714285715 30:0.35714285714285715 30:0.35714285714285715 
6.783874543284156 1:0.5636504898721716 2:0.12270413022365455 3:0.33693898779275094 4:0.30305045258780994 5:0.3999991697399333 6:0.5156256620717763 7:0.4647664420177173 8:0.44149096863801235 9:0.21937570064856265 10:0.3484601550010135 11:0.48250992105498663 12:0.2905331005179233 13:0.5378053654949053 14:0.2219513611782809 15:0.32878379772068833 16:0.4913130585727897 17:0.5783521295454113 18:0.5497067115011706 19:0.32842798976161713 20:0.3276046580972228 21:0.7120262706527558 22:0.029030525170133815 23:0.1665354545063584 24:0.394850099861275 25:0.5510838262271521 26:0.33561161925821664 27:0.5123467318376268 28:0.6260314702958661 29:0.6895510180472603 30:0.5714285714285714 31:0.375 32:0.0625 
16.0 1:0.7256957139246909 2:0.03889951003512317 3:0.37266504134458917 4:0.21485766234660203 5:0.38788347677555507 6:0.6827258082080632 7:0.13880984183581155 8:0.45391928618040434 9:0.1739887924332837 10:0.3204173937379472 11:0.6596371704434415 12:0.06292970540621218 13:0.3264209553379227 14:0.17329136349203114 15:0.40309299166661433 16:0.653734500252345 17:0.09585858145177135 18:0.6070335303918905 19:0.29972902588062705 20:0.27736141285263693 21:0.7548283361377808 22:0.01721593094577622 23:0.24790333193469258 24:0.2750619671740653 25:0.42262986198500047 26:0.3143029450195999 27:0.6139043199647326 28:0.7009970452126868 29:0.8604634171215713 30:0.35714285714285715 30:0.35714285714285715 32:0.0625 
16.0 1:0.8671889037610385 2:0.02050226363170155 3:0.2060055298462112 4:0.19693192347147928 5:0.44952529801154295 6:0.8461556432167336 7:0.01837186297660082 8:0.12756154451043017 9:0.1566766367977407 10:0.5174325721861425 11:0.8152265258398378 12:0.07323131921162454 13:0.15831898271129297 14:0.21943616323773274 15:0.5129297275622061 16:0.8717280803049892 17:0.04660127984013249 18:0.1726025356594658 19:0.16010017476984703 20:0.4295053264053731 21:0.8051515140593161 22:0.006665030883891231 23:0.08380260251550935 24:0.2600474858274145 25:0.4370897263193485 26:0.4458739571816262 27:0.4553220989699203 28:0.6575826597355461 29:0.8246885529872126 30:0.42857142857142855 30:0.42857142857142855 32:0.0625 
16.0 1:0.7178867747930449 2:0.06679799868143936 3:0.33776034281355144 4:0.24247374965526095 5:0.4166691049515976 6:0.6634923233287712 7:0.26044692263496766 8:0.32744118605482736 9:0.20703887013828132 10:0.3648131758842221 11:0.6287918936999806 12:0.1505170357136402 13:0.4627842946524353 14:0.198750732077306 15:0.3608293452565893 16:0.5978872591355522 17:0.47807972049212927 18:0.5065179774238779 19:0.24694615016594687 20:0.2965507869067239 21:0.905408487437157 22:0.023901010405232376 23:0.09324850577262854 24:0.27504259880344367 25:0.5181705462258537 26:0.3049552718866218 27:0.5658099161953214 28:0.6569373901093215 29:0.7138685694367094 30:0.21428571428571427 31:0.125 32:0.0625 
16.0 1:0.8165211110903773 2:0.023188973079826716 3:0.15867169805201675 4:0.3040636034769338 5:0.6392563605999811 6:0.8547089467915 7:0.029928252957256794 8:0.11660583138006897 9:0.21103937163382447 10:0.6178114368005974 11:0.8293564605134085 12:0.04536440144333505 13:0.25613305094849553 14:0.21042281786320158 15:0.5298313562521905 16:0.8399362533124539 17:0.05454292450574654 18:0.13158344902597005 19:0.23401887672942825 20:0.5274009096252549 21:0.7666555675648196 22:0.009706311289945965 23:0.06540153447171303 24:0.24379250997166857 25:0.46239856596899415 26:0.5029651221228263 27:0.5088789247911017 28:0.5997823618221804 29:0.8188175744755789 30:0.14285714285714285 31:0.125 31:0.125 
16.0 1:0.9418065867432702 2:0.005417270779082569 3:0.03014437688064636 4:0.22256260939218564 5:0.5502474982930542 6:0.9200086754513634 7:0.011900962283311528 8:0.0340434657168894 9:0.1824256770670649 10:0.6158045993681559 11:0.9161780550708587 12:0.023591339131471177 13:0.041466031784336777 14:0.18372153782985792 15:0.5624357596679255 16:0.8734279179085355 17:0.1119585982382823 18:0.09337811928210718 19:0.11796560635489207 20:0.40399961451191113 21:0.9107051243018712 22:0.01127706255779578 23:0.028602221833577187 24:0.13589413467912848 25:0.41447490162171413 26:0.41089556739370764 27:0.34224697879796107 28:0.6395710211950545 29:0.7008469816290234 30:0.2857142857142857 31:0.125 32:0.0625 
16.0 1:0.95267196753603 2:0.007174867961392394 3:0.09052719309758704 4:0.14950210281664852 5:0.5000089117523311 6:0.9355011273122845 7:0.009070820350069802 8:6.69125153182029E-4 9:0.1821760724077262 10:0.6113922051629961 11:0.9232908509430064 12:0.018787818603361994 13:0.11281638001663048 14:0.08415453734313606 15:0.48454735598728554 16:0.9013437602279135 17:0.025023615151580157 18:0.11600627699503178 19:0.14945856681291733 20:0.4597089123625412 21:0.8262132900400219 22:0.021324130728776414 23:0.07138722944872838 24:0.190135239072308 25:0.43536083648190677 26:0.49241129761785124 27:0.47040807164077447 28:0.7024410318786545 29:0.8655352606270986 30:0.14285714285714285 30:0.14285714285714285 30:0.14285714285714285 
16.0 1:0.8623537472022081 2:0.03766388574105216 3:0.19979755740286662 4:0.32955861442710693 5:0.5949923582467305 6:0.8205241355006192 7:0.0817139167102786 8:0.21166872993178207 9:0.2793154889064321 10:0.5905758608732845 11:0.8169229550482425 12:0.07354587353950844 13:0.17789825004646526 14:0.18179172291868284 15:0.509907300214821 16:0.8241199080987021 17:0.12938797757090512 18:0.16327884956154995 19:0.29901277484858896 20:0.490339295856052 21:0.8406272466225813 22:0.024476696542855187 23:0.16823816819656648 24:0.361179801751727 25:0.5517217869515634 26:0.4968338526485075 27:0.6345899809442024 28:0.5401952625202872 29:0.8376751310708234 30:0.07142857142857142 31:0.125 32:0.0625 
6.103338088162834 1:0.8734033847774094 2:0.012488957675906178 3:0.22372649388740753 4:0.3517600509694268 5:0.5685684962438217 6:0.8451678002273039 7:0.052040262321040615 8:0.22555814187099826 9:0.315348146117173 10:0.6050106900959235 11:0.8122954002635806 12:0.09486053973647031 13:0.3257256179280263 14:0.2832257537987102 15:0.5400232838947877 16:0.7610143741625301 17:0.0961519107168063 18:0.32471108518653213 19:0.4209816927272724 20:0.54784513351835 21:0.8285406986081205 22:0.008760401757286483 23:0.18629324572590247 24:0.4118133954400187 25:0.5102561775846214 26:0.4675846818775756 27:0.5477688895011958 28:0.4564868330936999 29:0.607369496179634 30:0.14285714285714285 31:0.125 31:0.125 
